tree
version=v4
num_class=1
num_tree_per_iteration=1
label_index=0
max_feature_idx=19
objective=regression
feature_names=Column_0 Column_1 Column_2 Column_3 Column_4 Column_5 Column_6 Column_7 Column_8 Column_9 Column_10 Column_11 Column_12 Column_13 Column_14 Column_15 Column_16 Column_17 Column_18 Column_19
feature_infos=[1:11] [1:11] [-2.3999999999999999:18.399999999999999] [37.399999999999999:57.299999999999997] none none [1600:1600] [0:4] [0:2] [6:11] [50:1200] [0:40] [0:1015] [1:11] [1:11] [1:11] [1:11] none [37.399999999999999:43.899999999999999] [0:1.61568e+17]
tree_sizes=2661 2750 2756 2769 2769 2804 2814 2828 2781 2835 2835 2790 2842 2825 2843 2833 2870 2883 2846 2855 2882 2888 2924 2919 2916 2923 2874 2878 2924 2904 2862 2863 2840 3017 2885 2857 2915 2935 2911 2926 2956 2949 2931 2912 2934 2991 2967 3012 2959 2940 2950 3016 2969 2928 2932 2966 2963 2915 2854 2963 2966 2962 2982 2962 3041 3010 2984 3001 3008 3021 3008 2934 3076 3040 3002 3022 3001 3026 2975 2952 3046 3090 3090 2889 2962 2987 3076 3044 3104 3064 3140 3028 2990 3039 3033 2946 3002 3149 3052 3056

Tree=0
num_leaves=31
num_cat=0
split_feature=3 3 10 3 10 10 3 3 10 16 3 3 7 3 15 15 3 15 9 3 14 8 7 7 15 3 9 15 10 7
split_gain=6677.47 1632.71 953.104 571.818 489.513 257.188 249.648 238.74 195.208 180.516 126.676 116 96.0197 90.3842 89.6982 82.158 78.1158 64.0884 60.275 57.9461 57.172 51.5948 57.7765 48.2023 45.6271 44.6849 42.8984 41.3803 38.516 38.147
threshold=41.95000000000001 40.250000000000007 65.000000000000014 44.150000000000013 80.000000000000014 135.00000000000003 42.95000000000001 47.100000000000009 135.00000000000003 5.5000000000000009 39.45000000000001 41.250000000000007 2.5000000000000004 41.150000000000013 5.5000000000000009 7.5000000000000009 45.650000000000013 4.5000000000000009 9.5000000000000018 42.850000000000001 5.5000000000000009 1.0000000180025095e-35 2.5000000000000004 2.5000000000000004 2.5000000000000004 39.650000000000013 9.5000000000000018 6.5000000000000009 150.00000000000003 1.5000000000000002
decision_type=2 2 8 2 8 8 2 2 10 2 2 2 2 2 2 2 2 2 2 2 2 2 2 2 2 2 2 2 10 2
left_child=1 5 6 9 13 14 23 -5 11 19 26 15 27 -3 25 -6 17 -8 -12 28 -14 -11 -23 -2 -13 -1 29 -10 -4 -7
right_child=2 4 3 7 8 10 16 -9 12 21 18 24 20 -15 -16 -17 -18 -19 -20 -21 -22 22 -24 -25 -26 -27 -28 -29 -30 -31
leaf_value=107.74480371797701 108.30249190522311 108.01269230684807 108.03899865728364 108.30773731490353 107.89625406080768 107.52996509727977 108.33930462196824 108.81996506179591 107.87715855720357 108.25652058576893 107.82179136858431 107.93440946760117 107.74686370587668 108.11816268002052 107.92847851497106 108.00826045097962 108.67425063922512 108.47735631534712 107.7288817096648 108.11032216251533 107.88188807513181 108.171976517348 108.06746501546064 108.17121503597322 108.03876179306214 107.85701322052878 107.63061717677452 107.96571498715463 107.93288171080783 107.73254079260208
leaf_weight=62 93 154 119 101 256 9.9999999999999982 53 9.9999999999999982 155 45 167 54 79 172 111 88 13.999999999999998 92 120 84 52 174 76 40 187 83 92 80 48 132
leaf_count=62 93 154 119 101 256 10 53 10 155 45 167 54 79 172 111 88 14 92 120 84 52 174 76 40 187 83 92 80 48 132
internal_value=107.994 107.893 108.214 108.147 107.963 107.779 108.364 108.354 107.926 108.105 107.738 107.962 107.869 108.068 107.861 107.925 108.449 108.427 107.783 108.043 107.8 108.158 108.14 108.263 108.015 107.809 107.684 107.907 108.008 107.718
internal_weight=0 2054 949 657 1277 777 292 111 951 546 521 585 366 326 256 344 159 145 287 251 131 295 250 133 241 145 234 235 167 142
internal_count=3003 2054 949 657 1277 777 292 111 951 546 521 585 366 326 256 344 159 145 287 251 131 295 250 133 241 145 234 235 167 142
is_linear=0
shrinkage=1


Tree=1
num_leaves=31
num_cat=0
split_feature=3 3 10 10 3 10 3 10 3 3 14 3 3 3 14 10 7 3 16 16 14 13 7 7 14 9 14 16 13 3
split_gain=5411.84 1481.76 627.534 478.071 409.485 211.796 176.502 170.961 159.88 115.173 107.522 101.963 92.6306 80.1802 80.1457 72.9864 71.9477 66.0322 65.3904 49.5546 48.0113 46.9794 44.5333 42.9899 42.5425 39.9919 36.7509 35.5513 34.7433 34.266
threshold=42.150000000000013 40.250000000000007 65.000000000000014 80.000000000000014 45.45000000000001 150.00000000000003 42.95000000000001 135.00000000000003 43.750000000000007 40.95000000000001 3.5000000000000004 41.45000000000001 39.45000000000001 47.900000000000006 5.5000000000000009 65.000000000000014 2.5000000000000004 45.050000000000004 5.5000000000000009 4.5000000000000009 4.5000000000000009 8.5000000000000018 3.5000000000000004 2.5000000000000004 7.5000000000000009 9.5000000000000018 4.5000000000000009 8.5000000000000018 6.5000000000000009 41.550000000000004
decision_type=2 2 8 8 2 8 2 10 2 2 2 2 2 2 2 10 2 2 2 2 2 2 2 2 2 2 2 2 2 2
left_child=1 5 6 11 8 15 28 9 10 24 -4 -3 25 -6 16 -1 -9 23 -11 -17 -10 -12 -14 27 -5 -7 -13 -8 -2 -16
right_child=2 3 4 7 13 12 17 14 20 18 21 26 22 -15 29 19 -18 -19 -20 -21 -22 -23 -24 -25 -26 -27 -28 -29 -30 -31
leaf_value=-0.026276644847774023 0.19918269404319894 0.032502641453919727 0.038279567737691554 -0.10347178352581275 0.42436074575934407 -0.25119146378085672 0.3777025470475191 -0.10307465317210814 0.18498096183237289 -0.024115250200887142 0.12434003673330818 0.073067102955841248 -0.18086805972831205 0.8017535201311804 -0.078714809926958215 -0.19003089538309362 -0.21837395114644323 0.53979249074138314 0.059906752350199072 -0.09813301358406866 0.30913976894935125 0.23209854866105789 -0.3122743471117167 0.27879952151513054 -0.0088751431633131341 -0.34053008319705974 0.17661848442572597 0.52271893360681454 0.31355834651457953 0.031531119905309199
leaf_weight=57 67 214 148 177 19.000000000000004 137 73 146 80 228 212 53 233 7.9999999999999991 130 142 86 31 156 100 51 50 29 33 65 79 97 22 44 36
leaf_count=57 67 214 148 177 19 137 73 146 80 228 212 53 233 8 130 142 86 31 156 100 51 50 29 33 65 79 97 22 44 36
internal_value=0 -0.0835195 0.215775 -0.0216217 0.156112 -0.194091 0.341288 -0.0566124 0.137144 -0.0240323 0.106416 0.0768135 -0.235384 0.536181 -0.107856 -0.128078 -0.145815 0.408843 0.0100187 -0.152057 0.233318 0.144905 -0.195413 0.377129 -0.0780636 -0.283866 0.14003 0.411285 0.244521 -0.0548061
internal_weight=0 2165 838 1388 568 777 270 1024 541 626 410 364 478 27 398 299 232 159 384 242 131 262 262 128 242 216 150 95 111 166
internal_count=3003 2165 838 1388 568 777 270 1024 541 626 410 364 478 27 398 299 232 159 384 242 131 262 262 128 242 216 150 95 111 166
is_linear=0
shrinkage=0.1


Tree=2
num_leaves=31
num_cat=0
split_feature=3 3 10 3 10 2 2 10 3 15 15 3 15 3 7 3 2 7 7 15 7 3 8 8 8 3 7 10 10 14
split_gain=4398.99 1077.3 627.75 380.792 359.68 174.129 169.827 144.828 139.403 122.701 95.6335 84.1531 75.7163 70.0774 66.8114 65.3495 59.3522 57.9259 55.7757 55.4685 52.9962 46.3178 45.0344 44.3649 37.9937 36.6296 35.999 33.9631 33.1838 33.0524
threshold=41.95000000000001 40.150000000000013 65.000000000000014 44.150000000000013 80.000000000000014 8.7500000000000018 3.0500000000000003 135.00000000000003 41.250000000000007 6.5000000000000009 6.5000000000000009 43.050000000000004 2.5000000000000004 39.150000000000013 2.5000000000000004 40.95000000000001 5.0500000000000007 3.5000000000000004 2.5000000000000004 5.5000000000000009 2.5000000000000004 45.45000000000001 1.0000000180025095e-35 1.0000000180025095e-35 1.5000000000000002 42.45000000000001 2.5000000000000004 150.00000000000003 135.00000000000003 4.5000000000000009
decision_type=2 2 8 2 8 2 2 8 2 2 2 2 2 2 2 2 2 2 2 2 2 2 2 2 2 2 2 8 10 2
left_child=1 7 6 9 15 21 14 19 10 11 20 18 -10 -9 24 -3 26 22 -4 -1 27 29 -15 -12 -2 -11 -8 -6 -14 -5
right_child=2 4 3 5 8 -7 16 13 12 25 23 -13 28 17 -16 -17 -18 -19 -20 -21 -22 -23 -24 -25 -26 -27 -28 -29 -30 -31
leaf_value=-0.16005479568617004 0.18859430149540193 0.0031447213510066895 0.053018420761880659 0.17992820336963611 -0.044501310737023202 0.86937606879527451 0.39973071306563779 -0.27442447199953052 -0.08996272116843429 0.097862379799476956 0.12000506046530471 0.1252887030625055 0.038198418771719138 0.034276064056530539 0.12530140883808796 0.093019555074867838 0.52557691342850088 -0.29988716601562404 -0.052344918610878248 -0.058065432720646043 -0.16207108445700566 0.39465063343931517 -0.18168009318986339 -0.048168779309626514 0.30618398366154953 0.19207952604341985 0.26876830879302532 -0.11781698709535866 -0.033881752862011193 0.30772407260950269
leaf_weight=125 39 132 178 50 104 4.9999999999999991 61 140 94 65 17 120 187 9.9999999999999982 41 209 26 42 70 93 159 22 281 203 93 113 32 161 97 34
leaf_count=125 39 132 178 50 104 5 61 140 94 65 17 120 187 10 41 209 26 42 70 93 159 22 281 203 93 113 32 161 97 34
internal_value=0 -0.0822682 0.17806 0.123839 -0.0307028 0.292687 0.300058 -0.183981 -0.0603758 0.0895125 -0.088671 0.0565429 -0.0121691 -0.215061 0.236807 0.0582293 0.39201 -0.190104 0.0232788 -0.116546 -0.116429 0.265484 -0.174259 -0.0351735 0.271442 0.157674 0.354668 -0.089044 0.0135795 0.231655
internal_weight=0 2054 949 657 1363 111 292 691 1022 546 644 368 378 473 173 341 119 333 248 218 424 106 291 220 132 178 93 265 284 84
internal_count=3003 2054 949 657 1363 111 292 691 1022 546 644 368 378 473 173 341 119 333 248 218 424 106 291 220 132 178 93 265 284 84
is_linear=0
shrinkage=0.1


Tree=3
num_leaves=31
num_cat=0
split_feature=3 3 3 3 14 3 3 14 15 13 2 14 3 3 2 8 9 9 13 12 8 15 9 12 3 14 9 9 15 15
split_gain=3566.57 973.878 413.477 211.643 159.772 159.25 154.675 121.357 75.1606 67.6668 63.3434 53.9186 48.934 39.4443 39.1489 36.8846 35.8568 32.2694 29.9852 29.4338 27.841 26.0788 25.5707 24.8562 22.4873 23.1357 22.2485 20.992 20.6583 19.9295
threshold=42.150000000000013 40.250000000000007 43.95000000000001 41.250000000000007 5.5000000000000009 46.650000000000013 39.650000000000013 4.5000000000000009 5.5000000000000009 5.5000000000000009 3.5500000000000003 3.5000000000000004 42.95000000000001 43.45000000000001 8.7500000000000018 1.0000000180025095e-35 10.500000000000002 10.500000000000002 6.5000000000000009 302.50000000000006 1.5000000000000002 1.5000000000000002 9.5000000000000018 416.50000000000006 45.050000000000004 8.5000000000000018 9.5000000000000018 10.500000000000002 8.5000000000000018 1.5000000000000002
decision_type=2 2 2 2 2 2 2 2 2 2 2 2 2 2 2 2 2 2 2 2 2 2 2 2 2 2 2 2 2 2
left_child=1 6 4 9 12 11 8 -5 16 17 13 -4 21 23 -7 -11 20 -3 22 -9 -1 -2 -8 28 25 -13 -26 -10 -6 -14
right_child=2 3 5 7 10 14 18 19 27 15 -12 24 29 -15 -16 -17 -18 -19 -20 -21 -22 -23 -24 -25 26 -27 -28 -29 -30 -31
leaf_value=-0.17120542015248219 -0.016102728243594388 -0.068222729835973342 0.20539230283434146 -0.023851985888394801 0.074483508744244836 0.46135018845657405 -0.10784439812017224 0.029517072619352505 -0.12820828801834605 0.090396912283109102 0.27191757472169631 0.26399618904151201 0.062870810955311329 0.28941663947399421 0.74775256150491276 -0.031227115379893457 -0.3301629555203523 -0.1407317104568728 -0.074311847775709219 0.088033943272573814 -0.24859354460603356 0.077176629109975858 -0.17632431427044556 0.18657039247755192 0.5298998655119519 0.4350682479832913 0.33629243964159455 -0.20929317475965578 0.17700368101078631 0.15392150208386804
leaf_weight=73 36 319 79 286 57 15.000000000000002 149 147 124 27 75 65 30 22 6.9999999999999991 326 35 76 139 207 128 179 86 82 8.0000000000000018 8.9999999999999982 23 43 30 121
leaf_count=73 36 319 79 286 57 15 149 147 124 27 75 65 30 22 7 326 35 76 139 207 128 179 86 82 8 9 23 43 30 121
internal_value=0 -0.0678017 0.175168 -0.0176208 0.135065 0.298203 -0.157443 0.0245943 -0.200425 -0.0537406 0.194043 0.2678 0.0922009 0.163464 0.552478 -0.0219244 -0.236753 -0.0821738 -0.111128 0.0637346 -0.220487 0.0615578 -0.132905 0.147068 0.314755 0.284802 0.386256 -0.149086 0.109835 0.135832
internal_weight=0 2165 838 1388 632 206 777 640 403 748 266 184 366 191 22 353 236 395 374 354 201 215 235 169 105 74 31 167 87 151
internal_count=3003 2165 838 1388 632 206 777 640 403 748 266 184 366 191 22 353 236 395 374 354 201 215 235 169 105 74 31 167 87 151
is_linear=0
shrinkage=0.1


Tree=4
num_leaves=31
num_cat=0
split_feature=2 18 18 10 10 10 2 10 2 18 10 2 2 2 1 2 18 18 7 18 7 10 8 9 7 7 18 7 2 9
split_gain=1907.25 893.501 524.747 381.449 253.531 237.139 181.26 139.765 131.956 126.187 122.155 112.822 88.3762 88.3346 83.985 62.8852 59.9175 59.5916 58.9533 54.4178 52.3538 51.836 51.7541 47.6349 47.1521 45.7282 42.2811 41.4198 41.3378 41.0791
threshold=2.2500000000000004 40.95000000000001 40.250000000000007 135.00000000000003 115.00000000000001 65.000000000000014 8.7500000000000018 65.000000000000014 4.2500000000000009 39.350000000000001 105.00000000000001 1.0500000000000003 0.8500000000000002 0.75000000000000011 4.5000000000000009 4.4500000000000011 42.150000000000013 41.550000000000004 2.5000000000000004 41.95000000000001 2.5000000000000004 150.00000000000003 1.0000000180025095e-35 10.500000000000002 2.5000000000000004 2.5000000000000004 39.850000000000001 2.5000000000000004 4.4500000000000011 7.5000000000000009
decision_type=2 2 2 8 8 8 2 10 2 2 10 2 2 2 2 2 2 2 2 2 2 10 2 2 2 2 2 2 2 2
left_child=1 3 6 7 12 15 10 25 20 21 23 16 27 -11 18 -4 -6 -13 26 -14 -7 -5 -22 -2 -15 -1 -9 -3 -12 -23
right_child=2 4 5 9 11 8 -8 14 -10 13 28 17 19 24 -16 -17 -18 -19 -20 -21 22 29 -24 -25 -26 -27 -28 -29 -30 -31
leaf_value=0.11158842897124469 0.1113784056496519 0.07142839454382853 0.26666693978878175 -0.13576915922277363 -0.085508648429940992 0.14393680621516441 0.63372210576435428 -0.1290168795055702 0.28619625339431892 -0.16571313613079741 -0.052434107276058697 -0.0083054921466338919 0.11617659957433389 -0.051928161296098521 -0.010664959367540149 0.4291869212029365 0.032475324328813102 0.10580860595902913 -0.16659749724808837 0.24763512429682774 0.28145592261161551 -0.088958361276094522 0.0109436100882624 -0.022087675341779401 -0.13063301281499926 -0.0027958897423491589 -0.03180885510238448 -0.045378324450809158 0.094542102982307294 -0.25314933811696022
leaf_weight=64 141 137 133 75 198 191 4.9999999999999991 71 56 222 147 102 148 190 176 29 55 83 88 40 7.9999999999999991 17 61 33 127 77 121 39 22 147
leaf_count=64 141 137 133 75 198 191 5 71 56 222 147 102 148 190 176 29 55 83 88 40 8 17 61 33 127 77 121 39 22 147
internal_value=0 -0.0490893 0.129379 -0.0980169 0.0347953 0.197388 0.035966 -0.03789 0.146956 -0.144156 0.0272524 -0.0164603 0.0964711 -0.117338 -0.0647954 0.29576 -0.05986 0.0428916 -0.0988202 0.144146 0.116966 -0.204636 0.0423074 0.0860659 -0.0834598 0.0491232 -0.0677556 0.0455451 -0.0333011 -0.23613
internal_weight=0 2177 826 1375 802 478 348 597 316 778 343 438 364 539 456 162 253 185 280 188 260 239 69 174 317 141 192 176 169 164
internal_count=3003 2177 826 1375 802 478 348 597 316 778 343 438 364 539 456 162 253 185 280 188 260 239 69 174 317 141 192 176 169 164
is_linear=0
shrinkage=0.1


Tree=5
num_leaves=31
num_cat=0
split_feature=10 1 18 18 1 10 7 8 7 12 10 18 9 8 10 8 10 7 1 10 7 10 10 10 1 7 18 10 10 9
split_gain=1431.37 754.411 353.603 311.469 281.534 180.996 155.271 138.675 157.274 131.422 83.9592 80.2424 61.3709 57.5419 55.6312 54.2848 55.0122 54.1301 54.0367 49.5704 40.2849 39.9939 46.4914 45.9291 38.8978 35.8174 35.5307 46.2338 41.0032 35.3126
threshold=65.000000000000014 5.5000000000000009 40.050000000000004 41.350000000000001 5.5000000000000009 135.00000000000003 2.5000000000000004 1.0000000180025095e-35 2.5000000000000004 912.50000000000011 150.00000000000003 39.750000000000007 7.5000000000000009 1.5000000000000002 135.00000000000003 1.0000000180025095e-35 95.000000000000014 3.5000000000000004 8.5000000000000018 350.00000000000006 2.5000000000000004 150.00000000000003 270.00000000000006 550.00000000000011 2.5000000000000004 2.5000000000000004 39.750000000000007 270.00000000000006 350.00000000000006 9.5000000000000018
decision_type=8 2 2 2 2 8 2 2 2 2 10 2 2 2 10 2 10 2 2 10 2 8 10 10 2 2 2 8 8 2
left_child=4 2 10 5 6 18 12 -4 21 17 13 -6 -1 -2 -10 -5 -17 26 20 -16 -3 -9 -23 -24 -15 -13 29 -28 -29 -7
right_child=1 3 7 15 11 9 -8 8 14 -11 -12 25 -14 24 19 16 -18 -19 -20 -21 -22 22 23 -25 -26 -27 27 28 -30 -31
leaf_value=0.30555506462682708 -0.056047200941773415 0.057427146685475806 0.054638806431374393 0.22900572536600916 0.084210448527996293 -0.032279992966482998 -0.0022778520388565216 0.0020146949386831317 -0.089376552710873289 0.19983979421266926 -0.19025305157369704 0.27448720674312449 0.1201895319412854 -0.19083020337781925 -0.21250714054012299 0.17066792420878163 0.051121774793917267 -0.16003724849773296 0.11287665425244756 0.11242116978656667 -0.027435735078065487 -0.070302970496126257 0.15187558638350307 -0.089567206549950526 -0.10350987017370739 0.18394938573479785 -0.048181527589613186 0.24718686595307526 0.021133468784251527 -0.12720436691154854
leaf_weight=20 121 176 130 53 35 86 130 249 143 22 224 148 167 93 77 78 76 41 115 4.9999999999999991 82 226 20 12.999999999999998 113 62 143 8.9999999999999982 74 72
leaf_count=20 121 176 130 53 35 86 130 249 143 22 224 148 167 93 77 78 76 41 115 5 82 226 20 13 113 62 143 9 74 72
internal_value=0 -0.033127 -0.0805054 0.0321048 0.143884 0.00443539 0.0816613 -0.0405474 -0.057429 -0.0384815 -0.143089 0.224393 0.140015 -0.110781 -0.12703 0.141713 0.111671 -0.0508182 0.0558667 -0.192694 0.0304552 -0.0266017 -0.0541133 0.0567618 -0.142931 0.247757 -0.0391568 -0.013723 0.0456453 -0.0755367
internal_weight=0 2441 1414 1027 562 820 317 863 733 447 551 245 187 327 225 207 154 425 373 82 258 508 259 33 206 210 384 226 83 158
internal_count=3003 2441 1414 1027 562 820 317 863 733 447 551 245 187 327 225 207 154 425 373 82 258 508 259 33 206 210 384 226 83 158
is_linear=0
shrinkage=0.1


Tree=6
num_leaves=31
num_cat=0
split_feature=3 3 3 3 3 15 14 3 15 16 15 2 12 9 15 2 11 18 8 8 12 18 15 2 11 13 12 9 12 9
split_gain=2054.05 475.002 337.203 140.292 126.107 105.018 67.6529 62.2129 44.2972 44.1472 39.3963 35.9285 35.7004 32.1579 30.7241 25.8588 25.2405 24.515 24.3969 23.7463 22.0805 21.3746 18.9167 18.6746 18.307 17.4597 17.8799 16.3047 16.0117 20.0404
threshold=41.850000000000001 39.95000000000001 43.350000000000001 46.250000000000007 40.95000000000001 3.5000000000000004 4.5000000000000009 38.550000000000004 4.5000000000000009 4.5000000000000009 7.5000000000000009 8.7500000000000018 313.50000000000006 10.500000000000002 6.5000000000000009 2.9500000000000006 3.5000000000000004 41.550000000000004 1.5000000000000002 1.5000000000000002 329.00000000000006 40.750000000000007 8.5000000000000018 4.3500000000000005 8.5000000000000018 2.5000000000000004 689.50000000000011 10.500000000000002 751.00000000000011 6.5000000000000009
decision_type=2 2 2 2 2 2 2 2 2 2 2 2 2 2 2 2 2 2 2 2 2 2 2 2 2 2 2 2 2 2
left_child=1 7 5 6 10 16 -4 -1 -6 17 13 -5 22 28 -14 -12 -2 19 -16 27 24 -8 -7 -23 -10 -21 -27 -9 29 -3
right_child=2 4 3 11 8 12 21 9 20 -11 15 -13 14 -15 18 -17 -18 -19 -20 25 -22 23 -24 -25 -26 26 -28 -29 -30 -31
leaf_value=-0.24641245021435187 0.11370088678608009 0.056223801795567234 0.13384702617508046 0.34421210086002252 -0.025384344229847335 0.044930491319842704 0.162405091146404 -0.10354840644300817 -0.050874596498305273 -0.090418783410397094 -0.027942217888926132 0.60432295937477898 0.091317035327367846 -0.11953972546847752 0.098540194863229624 0.09622794814475942 0.0048965434715331621 0.069794912195189088 0.18632415803209135 -0.21716755546081565 0.049072755753619454 0.22500543863168382 0.12266017618269923 0.31989400745245045 0.020103274147978842 -0.1710190143321354 -0.073670599932933054 -0.21521009402011276 -0.014325888076573104 -0.070020329338107076
leaf_weight=47 24 12.999999999999998 168 22.000000000000004 309 123 38 102 50 207 143 6.9999999999999991 149 104 48 19 191 4.9999999999999991 93 65 195 80 42 28 133 105 23 14.999999999999998 71 384
leaf_count=47 24 13 168 22 309 123 38 102 50 207 143 7 149 104 48 19 191 5 93 65 195 80 42 28 133 105 23 15 71 384
internal_value=0 -0.0590074 0.115918 0.196554 -0.0280916 0.0746366 0.177118 -0.136215 0.00270077 -0.126293 -0.0569122 0.406997 0.101852 -0.0692415 0.12298 -0.0133791 0.0170421 -0.149868 0.15644 -0.153411 0.0256592 0.22691 0.0647162 0.249606 0.000710413 -0.17496 -0.153527 -0.117864 -0.0580642 -0.0658864
internal_weight=0 1990 1013 343 1421 670 314 569 687 522 734 29 455 572 290 162 215 315 141 310 378 146 165 108 183 193 128 117 468 397
internal_count=3003 1990 1013 343 1421 670 314 569 687 522 734 29 455 572 290 162 215 315 141 310 378 146 165 108 183 193 128 117 468 397
is_linear=0
shrinkage=0.1


Tree=7
num_leaves=31
num_cat=0
split_feature=3 3 10 3 10 3 2 10 10 3 16 14 7 7 9 2 2 10 13 2 10 7 9 9 16 2 7 7 10 9
split_gain=1677.55 458.643 250.533 153.772 153.043 146.416 90.8033 80.5105 71.2177 48.0975 41.4619 39.766 39.1263 38.4705 34.6216 32.0692 30.7996 29.9413 29.8907 29.8709 26.7574 25.8514 25.4664 25.4624 25.0997 24.4049 23.4023 22.7639 21.9524 21.7357
threshold=42.150000000000013 40.750000000000007 80.000000000000014 46.250000000000007 135.00000000000003 39.650000000000013 3.1500000000000008 150.00000000000003 65.000000000000014 43.150000000000013 5.5000000000000009 4.5000000000000009 2.5000000000000004 2.5000000000000004 7.5000000000000009 8.7500000000000018 4.6500000000000012 65.000000000000014 3.5000000000000004 5.0500000000000007 270.00000000000006 2.5000000000000004 9.5000000000000018 10.500000000000002 5.5000000000000009 1.4500000000000002 2.5000000000000004 3.5000000000000004 65.000000000000014 7.5000000000000009
decision_type=2 2 8 2 10 2 2 8 8 2 2 2 2 2 2 2 2 10 2 2 10 2 2 2 2 2 2 2 10 2
left_child=1 5 6 9 8 11 21 17 13 16 26 -1 -6 29 -8 -5 -4 24 -14 -16 -11 28 25 -15 -7 -9 -10 -13 -2 -3
right_child=2 4 3 15 12 7 14 22 10 20 -12 27 18 23 19 -17 -18 -19 -20 -21 -22 -23 -24 -25 -26 -27 -28 -29 -30 -31
leaf_value=-0.17449179649005059 0.18135745603259423 0.30204468960319319 0.027960270782110178 0.2803926019306312 -0.031104673010550921 -0.0068503435126721531 0.46202703244633342 -0.095912393190954612 0.0019512825999703266 0.084995306254858655 0.040742277275299305 -0.098581768626883171 -0.17340355620551032 0.05335127789568056 0.20954089197920656 0.58182688998179566 0.21621315661675508 -0.045598869343609898 -0.065801806012651787 0.32233616178323676 0.19175047029270498 0.071828606023749533 -0.12505892623323472 -0.092314954444097985 0.12380888651394535 -0.023382860984723794 -0.057578701332598806 -0.19077029329117215 0.098263554803700734 0.10635034889019346
leaf_weight=175 122 5.9999999999999991 253 12.000000000000002 177 65 6.9999999999999991 146 234 180 228 197 42 60 108 4.9999999999999991 8.9999999999999982 272 67 30 27 42 166 14.999999999999998 19 68 92 31 43 105
leaf_count=175 122 6 253 12 177 65 7 146 234 180 228 197 42 60 108 5 9 272 67 30 27 42 166 15 19 68 92 31 43 105
internal_value=0 -0.0465 0.120134 0.0736011 0.00199494 -0.0901838 0.184382 -0.0636533 0.0260054 0.0628919 0.00802996 -0.138637 -0.0601301 0.0795452 0.245067 0.36905 0.034427 -0.0294826 -0.107263 0.234062 0.0989199 0.141873 -0.0956659 0.024218 0.0227035 -0.0728656 -0.0148486 -0.111116 0.159703 0.116928
internal_weight=0 2165 838 486 1026 1139 352 736 740 469 554 403 286 186 145 17 262 356 109 138 207 207 380 75 84 214 326 228 165 111
internal_count=3003 2165 838 486 1026 1139 352 736 740 469 554 403 286 186 145 17 262 356 109 138 207 207 380 75 84 214 326 228 165 111
is_linear=0
shrinkage=0.1


Tree=8
num_leaves=31
num_cat=0
split_feature=3 3 3 10 10 10 3 10 10 8 16 8 8 3 10 10 10 10 10 2 15 8 12 12 14 2 10 18 8 16
split_gain=1375.46 375.587 206.684 158.259 126.274 123.675 103.535 64.6018 49.6732 57.2826 42.6816 41.2533 41.0382 40.415 39.9194 39.3541 36.1099 35.9443 34.7263 33.3526 28.4083 26.6392 24.9882 22.404 22.1452 20.6939 19.4678 19.2675 18.7285 17.7062
threshold=41.350000000000001 42.95000000000001 39.750000000000007 65.000000000000014 80.000000000000014 150.00000000000003 47.900000000000006 135.00000000000003 80.000000000000014 1.5000000000000002 6.5000000000000009 1.0000000180025095e-35 1.0000000180025095e-35 38.45000000000001 220.00000000000003 270.00000000000006 95.000000000000014 700.00000000000011 900.00000000000011 3.1500000000000008 5.5000000000000009 1.0000000180025095e-35 799.50000000000011 288.00000000000006 6.5000000000000009 1.6500000000000001 150.00000000000003 41.750000000000007 1.5000000000000002 3.5000000000000004
decision_type=2 2 2 8 8 10 2 10 8 2 2 2 2 2 8 10 10 10 10 2 2 2 2 2 2 2 10 2 2 2
left_child=2 3 13 24 19 8 12 10 -4 21 11 -5 -6 -1 26 29 -11 -17 20 27 28 -10 -7 -16 -2 -23 -14 -3 -15 -9
right_child=1 4 5 7 6 22 -8 15 9 16 -12 -13 14 18 23 17 -18 -19 -20 -21 -22 25 -24 -25 -26 -27 -28 -29 -30 -31
leaf_value=-0.22017070904679109 0.087142552223636996 0.10916402834037829 0.019407069702799692 0.10251922398887495 0.15758956568593302 -0.097834286506741183 0.45390829202582988 -0.093813147018915188 0.067316408548973514 -0.098545785473883388 0.073764046479288872 -0.0014670421572763781 0.060580928419289359 -0.090332510089154716 0.054532706938687482 0.15867138421674429 -0.028215646419301296 -0.03852678309023131 -0.23981706353214835 0.23949848999203241 -0.073396270152240636 -0.032594126705143618 0.0040818004652636896 0.1802148786925972 0.15382521643634342 0.043303832792851382 -0.022638783292130885 0.20439178460668106 -0.14872472715244417 -0.028274128264315718
leaf_weight=37 141 42 239 44 64 322 7.9999999999999991 62 47 155 172 287 85 87 23 19 138 18 20 118 168 164 26 37 77 46 42 43 149 123
leaf_count=37 141 42 239 44 64 322 8 62 47 155 172 287 85 87 23 19 138 18 20 118 168 164 26 37 77 46 42 43 149 123
internal_value=0 0.0721767 -0.0634595 0.0359873 0.146044 -0.0405595 0.0997597 0.0135233 -0.0186561 -0.0351963 0.0333543 0.0123559 0.0884721 -0.11994 0.0648169 -0.0314093 -0.065421 0.0627371 -0.111193 0.205096 -0.104825 -0.000737701 -0.0902199 0.132037 0.110696 -0.0159689 0.0330594 0.157338 -0.127199 -0.0502386
internal_weight=0 1405 1598 943 462 1137 259 725 789 550 503 331 251 461 187 222 293 37 424 203 404 257 348 60 218 210 127 85 236 185
internal_count=3003 1405 1598 943 462 1137 259 725 789 550 503 331 251 461 187 222 293 37 424 203 404 257 348 60 218 210 127 85 236 185
is_linear=0
shrinkage=0.1


Tree=9
num_leaves=31
num_cat=0
split_feature=3 3 10 10 10 3 7 7 3 8 16 16 7 9 18 18 3 7 8 7 19 3 9 16 3 10 3 8 10 18
split_gain=1117.96 340.385 149.614 109.458 103.32 96.4964 51.1407 49.6226 47.5699 44.577 40.8034 36.7507 36.2769 31.9867 34.5848 31.5696 31.3224 27.691 26.6175 35.2017 25.7145 25.569 24.8015 32.3299 23.3798 23.1094 22.2387 21.4364 21.1295 19.7473
threshold=42.350000000000001 40.750000000000007 65.000000000000014 80.000000000000014 150.00000000000003 45.45000000000001 2.5000000000000004 3.5000000000000004 39.750000000000007 1.0000000180025095e-35 7.5000000000000009 4.5000000000000009 2.5000000000000004 7.5000000000000009 39.350000000000001 40.050000000000004 44.45000000000001 3.5000000000000004 1.0000000180025095e-35 2.5000000000000004 87393600000000016 47.900000000000006 7.5000000000000009 8.5000000000000018 41.550000000000004 65.000000000000014 38.550000000000004 1.0000000180025095e-35 180.00000000000003 39.250000000000007
decision_type=2 2 8 8 10 2 2 2 2 2 2 2 2 2 2 2 2 2 2 2 2 2 2 2 2 8 2 2 10 2
left_child=1 4 12 24 8 10 -5 13 20 -8 18 -11 22 15 29 28 -14 25 -4 -20 26 -7 -2 -24 -3 -10 -1 -27 -6 -15
right_child=2 3 5 6 7 21 9 -9 17 11 -12 -13 16 14 -16 -17 -18 -19 19 -21 -22 -23 23 -25 -26 27 -28 -29 -30 -31
leaf_value=-0.1788277894775043 0.31401290131314541 0.028015882686571694 0.095039153880223548 0.0026424152871878555 0.01518258154235244 0.19540092242075865 0.12322994004612475 -0.21039779299864822 0.02852655421855534 -0.10221333548868435 0.1020529491599618 -0.026629752166638838 0.077982981674153351 -0.12575984178142194 -0.08365660257811583 0.16164605523856693 0.23204093271792192 -0.11685801113748479 0.048186500760381973 -0.041884792214619451 -0.17027701263428524 0.40851745069845669 0.15857699523544078 0.26780741668035479 0.082086351303513952 0.066724276826862383 -0.062502968175188203 -0.039942447824424798 -0.14275591052622291 -0.21089794452581831
leaf_weight=18 15.999999999999998 170 70 524 18 19.000000000000004 13.999999999999998 45 72 115 177 146 59 112 215 7.9999999999999991 17 34 164 59 31 7.9999999999999991 120 35 151 20 189 325 15.999999999999998 36
leaf_count=18 16 170 70 524 18 19 14 45 72 115 177 146 59 112 215 8 17 34 164 59 31 8 120 35 151 20 189 325 16 36
internal_value=0 -0.0350158 0.106318 0.00412956 -0.0735081 0.0747047 -0.0156854 -0.110776 -0.0491678 -0.0506082 0.0641436 -0.0599329 0.169929 -0.0997068 -0.109266 -0.0170867 0.112443 -0.03008 0.0412427 0.024356 -0.0853384 0.258547 0.195478 0.183242 0.0534509 -0.0230046 -0.0726182 -0.0337589 -0.0591414 -0.146469
internal_weight=0 2259 744 1120 1139 497 799 450 689 275 470 261 247 405 363 42 76 451 293 223 238 27 171 155 321 417 207 345 34 148
internal_count=3003 2259 744 1120 1139 497 799 450 689 275 470 261 247 405 363 42 76 451 293 223 238 27 171 155 321 417 207 345 34 148
is_linear=0
shrinkage=0.1


Tree=10
num_leaves=31
num_cat=0
split_feature=3 3 10 10 10 3 3 7 10 1 10 8 16 8 7 10 10 10 10 19 12 9 16 16 16 9 19 10 8 9
split_gain=911.564 255.342 143.051 104.41 86.9217 69.7579 68.4634 59.7348 48.5786 38.644 33.7931 42.8617 31.959 31.1817 30.8101 30.0757 29.7337 29.428 28.7757 28.5845 24.4609 23.9898 22.8035 22.0153 21.6087 26.0759 20.8288 20.241 20.1736 18.6551
threshold=41.350000000000001 42.95000000000001 150.00000000000003 65.000000000000014 80.000000000000014 39.750000000000007 46.250000000000007 3.5000000000000004 135.00000000000003 4.5000000000000009 80.000000000000014 1.5000000000000002 4.5000000000000009 1.0000000180025095e-35 2.5000000000000004 270.00000000000006 220.00000000000003 700.00000000000011 95.000000000000014 19396800000000004 762.50000000000011 7.5000000000000009 7.5000000000000009 4.5000000000000009 8.5000000000000018 7.5000000000000009 87393600000000016 105.00000000000001 1.0000000180025095e-35 10.500000000000002
decision_type=2 2 10 8 8 2 2 2 10 2 8 2 2 2 2 10 8 10 10 2 2 2 2 2 2 2 2 10 2 2
left_child=2 3 5 14 24 26 13 9 12 19 -7 22 28 -6 21 -10 -15 -17 -13 -4 -21 -2 -12 -23 25 -3 -1 -8 -5 -16
right_child=1 4 7 8 6 10 27 -9 15 -11 11 18 -14 16 29 17 -18 -19 -20 20 -22 23 -24 -25 -26 -27 -28 -29 -30 -31
leaf_value=-0.065356352832177972 0.25660693022308606 0.29603346486137982 -0.13418271576016985 0.073863087133276148 0.12879797558411943 0.016357005082674583 0.44428804765850444 -0.19085655789431127 -0.044752123944453943 -0.049231479986506205 -0.011281205333235452 -0.084395220934265686 0.04912164548719522 0.018901147269809002 0.057610802185053281 0.14081550090071177 0.10627282475003973 -0.037614549234211321 -0.021612327646195334 -0.088484319889649776 0.033429025112658849 0.058672648770255999 0.072636525573374633 0.13828165285314453 0.22024435526763741 0.13587311683665956 -0.15324930779965054 0.20481056584346036 -0.014745981324095159 -0.080231572730354528
leaf_weight=207 10.999999999999998 10.999999999999998 156 30 62 239 5.0000000000000027 55 185 218 219 155 294 123 54 19 57 18 138 123 19 62 38 79 58 134 31 11.999999999999998 179 11.999999999999998
leaf_count=207 11 11 156 30 62 239 5 55 185 218 219 155 294 123 54 19 57 18 138 123 19 62 38 79 58 134 31 12 179 12
internal_value=0 0.0587579 -0.0516613 0.0289186 0.119664 -0.0293518 0.0812627 -0.0917872 0.0106723 -0.0812275 -0.0150378 -0.0286803 0.027869 0.0676358 0.0896002 -0.0282915 0.0465688 0.0540117 -0.0548251 -0.104634 -0.072172 0.114373 0.00112686 0.103276 0.168658 0.148023 -0.0768046 0.275245 -0.00202698 0.0325486
internal_weight=0 1405 1598 943 462 1027 259 571 725 516 789 550 503 242 218 222 180 37 293 298 142 152 257 141 203 145 238 17 209 66
internal_count=3003 1405 1598 943 462 1027 259 571 725 516 789 550 503 242 218 222 180 37 293 298 142 152 257 141 203 145 238 17 209 66
is_linear=0
shrinkage=0.1


Tree=11
num_leaves=31
num_cat=0
split_feature=2 10 18 8 7 2 18 18 10 2 7 9 18 2 2 10 8 19 10 2 10 9 2 2 2 12 10 18 10 10
split_gain=544.862 257.518 151.159 139.843 100.518 90.7889 89.928 59.1542 52.0485 50.6982 47.2689 42.9432 40.0796 39.4577 35.2894 33.7323 33.3819 40.1118 31.9559 33.4262 26.2884 24.6499 23.605 21.4593 21.0523 20.4704 19.9377 18.9208 18.6534 18.3394
threshold=2.2500000000000004 80.000000000000014 40.050000000000004 1.0000000180025095e-35 2.5000000000000004 3.5500000000000003 39.850000000000001 39.150000000000013 135.00000000000003 5.8500000000000005 2.5000000000000004 10.500000000000002 41.95000000000001 0.8500000000000002 1.4500000000000002 65.000000000000014 1.5000000000000002 23025600000000004 95.000000000000014 0.15000000000000005 150.00000000000003 7.5000000000000009 0.25000000000000006 1.1500000000000001 7.1500000000000012 697.50000000000011 150.00000000000003 40.750000000000007 450.00000000000006 80.000000000000014
decision_type=2 8 2 2 2 2 2 2 10 2 2 2 2 2 2 10 2 2 8 2 8 2 2 2 2 2 10 2 10 10
left_child=1 7 9 -3 6 10 22 -1 18 11 20 29 14 21 -9 24 -10 23 -6 -20 -4 -8 -5 -18 27 26 -12 -7 -24 -2
right_child=2 3 5 4 8 15 13 12 16 -11 25 -13 -14 -15 -16 -17 17 -19 19 -21 -22 -23 28 -25 -26 -27 -28 -29 -30 -31
leaf_value=-0.13778410477319186 0.062519259459353674 0.040215886500242562 0.1154876525532558 -0.1273242114345435 -0.13805165680189382 0.10924575180697196 0.086857679405693555 0.011500054747351086 -0.074911980388915139 0.18602969680354423 0.01459490520784488 -0.063078422914579005 0.11273582845015784 0.013152294996642137 0.073642111059468385 0.11641235982353917 -0.23370840528565462 -0.078604126252555542 -0.10840049709786564 -0.027240656403516764 0.044477452865380435 -0.044699775372154547 -0.053505397096912669 -0.14382340867987564 0.3828093381613929 0.073408921515679793 -0.10932592805429903 0.2171906224874447 -0.14468173183733044 0.0023503569418611777
leaf_weight=19 83 171 171 74 46 22 14.999999999999998 297 95 15.999999999999998 41 73 69 305 132 95 49 53 68 200 75 282 219 58 5.9999999999999991 33 19 62 25 130
leaf_count=19 83 171 171 74 46 22 15 297 95 16 41 73 69 305 132 95 49 53 68 200 75 282 219 58 6 33 19 62 25 130
internal_value=0 -0.0262377 0.069152 -0.0454317 -0.0552677 0.101628 -0.0348345 0.035391 -0.0883056 0.0128026 0.0708787 0.00311161 0.0419981 -0.0121113 0.0306207 0.157974 -0.121867 -0.149747 -0.0610501 -0.0478335 0.0938382 -0.0380555 -0.0778513 -0.184986 0.201845 0.0101472 -0.0246467 0.188919 -0.0628472 0.0257965
internal_weight=0 2177 826 1660 1489 524 920 517 569 302 339 286 498 602 429 185 255 160 314 268 246 297 318 107 90 93 60 84 244 213
internal_count=3003 2177 826 1660 1489 524 920 517 569 302 339 286 498 602 429 185 255 160 314 268 246 297 318 107 90 93 60 84 244 213
is_linear=0
shrinkage=0.1


Tree=12
num_leaves=31
num_cat=0
split_feature=3 3 10 10 7 3 10 2 2 10 10 10 8 8 8 10 7 7 13 10 15 7 2 12 10 19 2 12 2 12
split_gain=613.973 190.52 85.0094 62.1065 59.0492 58.9574 57.7384 44.1504 33.7464 32.327 31.3376 45.9728 31.0316 27.9818 27.0515 26.8098 23.9569 23.7732 23.6718 23.5686 21.1918 20.7769 20.0907 19.4654 17.8309 16.9506 16.2466 15.6904 15.4714 14.7031
threshold=42.350000000000001 40.750000000000007 80.000000000000014 150.00000000000003 3.5000000000000004 46.250000000000007 150.00000000000003 0.75000000000000011 5.0500000000000007 65.000000000000014 270.00000000000006 450.00000000000006 1.0000000180025095e-35 1.0000000180025095e-35 1.5000000000000002 220.00000000000003 2.5000000000000004 2.5000000000000004 4.5000000000000009 150.00000000000003 3.5000000000000004 1.0000000180025095e-35 1.1500000000000001 665.50000000000011 65.000000000000014 19396800000000004 8.7500000000000018 27.500000000000004 3.1500000000000008 532.00000000000011
decision_type=2 2 8 10 2 2 8 2 2 8 10 10 2 2 2 8 2 2 2 10 2 2 2 2 10 2 2 2 2 2
left_child=1 4 8 9 6 13 20 25 17 16 22 -12 -11 -4 -6 19 -3 28 -17 -15 -1 -9 -5 -14 -22 -8 -7 -20 -2 -18
right_child=2 3 5 10 14 26 7 21 -10 12 11 -13 23 15 -16 18 29 -19 27 -21 24 -23 -24 -25 -26 -27 -28 -29 -30 -31
leaf_value=-0.048957463567938758 0.10376670070196099 0.077423880695894481 0.088168423913973171 -0.098922919945855226 -0.045042337123380065 0.16886662517796577 -0.12492344513006677 -0.17539234067815437 0.21694246086703048 0.068314109875096812 0.14569966155502775 -0.048579822964623681 0.0057032782556916493 0.02955232998695715 -0.15345164319074792 0.027736277017235751 -0.094283138982254183 0.056906583669755179 -0.039217776491453332 -0.042533860950969532 0.047418146409547744 -0.035349258739076454 -0.034042420246464956 -0.045198245136302856 -0.015698216367550293 -0.075629835696393102 0.38341710945163437 0.14951889956432904 0.15957333625472292 0.025778690860516963
leaf_weight=157 140 129 99 70 32 12.000000000000002 116 10.999999999999998 31 70 21 29 482 145 82 56 11.999999999999998 71 4.9999999999999991 66 56 287 150 89 223 175 4.9999999999999991 37 77 68
leaf_count=157 140 129 99 70 32 12 116 11 31 70 21 29 482 145 82 56 12 71 5 66 56 287 150 89 223 175 5 37 77 68
internal_value=0 -0.0259493 0.0787895 0.00333703 -0.0547471 0.0495044 -0.0471537 -0.0675737 0.117806 0.0166089 -0.0384448 0.0330176 0.0054732 0.0419016 -0.123021 0.0270783 0.0507619 0.107135 0.0702994 0.00700404 -0.0195679 -0.0405186 -0.0546862 -0.00223058 -0.0030297 -0.0952795 0.23197 0.12705 0.123569 0.00776942
internal_weight=0 2259 744 1120 1139 425 1025 589 319 850 270 50 641 408 114 309 209 288 98 211 436 298 220 571 279 291 17 42 217 80
internal_count=3003 2259 744 1120 1139 425 1025 589 319 850 270 50 641 408 114 309 209 288 98 211 436 298 220 571 279 291 17 42 217 80
is_linear=0
shrinkage=0.1


Tree=13
num_leaves=31
num_cat=0
split_feature=3 3 3 10 10 10 3 15 10 16 16 7 8 16 7 9 3 2 9 7 15 18 16 7 10 18 9 8 2 10
split_gain=502.778 142.178 84.195 58.7124 50.6959 44.8849 40.6665 37.2582 24.6036 23.0486 23.0201 22.5227 21.0843 19.8143 19.536 19.6013 17.2399 16.7444 16.1357 15.8369 15.7358 17.5777 15.5054 14.5932 20.3972 15.9472 14.5817 15.6627 13.9233 13.7482
threshold=41.350000000000001 42.95000000000001 39.650000000000013 65.000000000000014 65.000000000000014 150.00000000000003 47.900000000000006 6.5000000000000009 150.00000000000003 5.5000000000000009 2.5000000000000004 2.5000000000000004 1.0000000180025095e-35 8.5000000000000018 2.5000000000000004 7.5000000000000009 45.150000000000013 1.6500000000000001 6.5000000000000009 3.5000000000000004 6.5000000000000009 40.850000000000001 4.5000000000000009 2.5000000000000004 65.000000000000014 41.350000000000001 9.5000000000000018 1.0000000180025095e-35 4.4500000000000011 65.000000000000014
decision_type=2 2 2 8 8 10 2 2 10 2 2 2 2 2 2 2 2 2 2 2 2 2 2 2 8 2 2 2 2 8
left_child=2 3 10 14 20 9 13 8 12 23 -1 18 -5 16 15 -2 -6 -13 -7 -12 21 -3 -17 24 -4 -25 29 -28 -23 -11
right_child=1 4 5 7 6 11 -8 -9 -10 26 19 17 -14 -15 -16 22 -18 -19 -20 -21 -22 28 -24 25 -26 -27 27 -29 -30 -31
leaf_value=-0.10844446337388305 0.21516997646999969 0.030637388938503669 0.04270461249765134 0.065164562830519995 0.033503833510936241 0.10320478919064904 0.28755500498595515 0.040320669678413579 -0.04475786062941163 0.11945274172025698 -0.048873217144968832 -0.11957495894270881 -0.0043009975156312261 0.10118149840584663 0.021445885804404988 0.039138830040567174 0.12696086220510847 -0.044895861413797533 -0.041222494331290285 -0.12056136893250353 0.17314220672474995 0.11520732590374583 0.10594888109677235 -0.053363128213317929 -0.022430976492791022 0.04509752741655379 0.15156377165236848 -0.012916351437484187 0.2422246241514 0.023890057727150735
leaf_weight=153 10.999999999999998 22 58 51 192 7.9999999999999991 7.9999999999999991 236 133 18 214 73 305 81 66 62 22 51 234 36 64 63 79 191 281 18 5.9999999999999991 165 9.9999999999999982 92
leaf_count=153 11 22 58 51 192 8 8 236 133 18 214 73 305 81 66 62 22 51 234 36 64 63 79 191 281 18 6 165 10 92
internal_value=0 0.0436376 -0.0383672 0.0213715 0.0890854 -0.0250374 0.0650892 0.00768893 -0.00805973 -0.01216 -0.0778935 -0.0542052 0.00565053 0.0590562 0.0668755 0.0866016 0.0431116 -0.0888602 -0.036448 -0.0591963 0.134814 0.108993 0.0765714 -0.0241001 -0.0112868 -0.0448833 0.0111253 -0.00714512 0.132607 0.0395276
internal_weight=0 1405 1598 943 462 1195 303 725 489 829 403 366 356 295 218 152 214 124 242 250 159 95 141 548 339 209 281 171 73 110
internal_count=3003 1405 1598 943 462 1195 303 725 489 829 403 366 356 295 218 152 214 124 242 250 159 95 141 548 339 209 281 171 73 110
is_linear=0
shrinkage=0.1


Tree=14
num_leaves=31
num_cat=0
split_feature=3 10 10 2 3 3 8 2 10 2 15 16 14 3 8 9 10 10 19 2 8 10 9 14 2 9 9 8 10 10
split_gain=410.724 100.707 85.4303 54.9094 51.695 35.8018 33.4864 31.036 29.6028 23.8588 23.1458 21.7453 20.6159 18.9302 17.7358 17.2058 16.6595 21.6209 15.8417 15.5324 14.7719 17.5832 14.0255 13.8082 13.761 13.5252 13.1352 12.793 12.3051 11.8761
threshold=41.850000000000001 135.00000000000003 65.000000000000014 3.1500000000000008 40.95000000000001 39.350000000000001 1.5000000000000002 8.7500000000000018 65.000000000000014 3.5500000000000003 3.5000000000000004 7.5000000000000009 9.5000000000000018 39.150000000000013 1.0000000180025095e-35 7.5000000000000009 150.00000000000003 270.00000000000006 17496000000000002 -0.54999999999999993 1.0000000180025095e-35 65.000000000000014 10.500000000000002 8.5000000000000018 -0.34999999999999992 7.5000000000000009 7.5000000000000009 1.5000000000000002 180.00000000000003 80.000000000000014
decision_type=2 10 8 2 2 2 2 2 8 2 2 2 2 2 2 2 10 10 2 2 2 8 2 2 2 2 2 2 10 10
left_child=1 4 9 12 6 19 11 14 22 27 18 24 16 -10 -5 -12 -4 -18 -7 -3 -6 -22 -8 -15 -1 28 -11 -2 -21 -16
right_child=2 5 3 7 20 10 8 -9 13 26 15 -13 -14 23 29 -17 17 -19 -20 25 21 -23 -24 -25 -26 -27 -28 -29 -30 -31
leaf_value=-0.05577335057773717 0.038338695281987217 -0.18262029934132057 0.021989678659117086 0.14247775094264722 0.073206869887280965 -0.10225781231293257 0.015231198619218587 0.32004737059195726 -0.11836393338528722 0.28312643527358033 0.053674828729050099 0.092033925711015999 0.13360389894698496 -0.055880341145113838 0.094696065101405574 -0.035471573432548247 -0.039739218496378736 0.0654646844982813 -0.044639084209048815 0.08818649593876704 0.042981290148435741 -0.0011398843145525488 -0.088204319288195832 0.00075706512544777924 0.0058210395576163507 -0.097072484650072968 0.12984945584298166 0.093393646587022539 -0.093362491961070715 0.040852082769425001
leaf_weight=45 58 19 343 28 41 93 104 4.9999999999999991 42 5.9999999999999991 23 25 13.999999999999998 276 59 369 105 24 98 7.9999999999999982 123 340 14.999999999999998 51 187 124 82 155 7 134
leaf_count=45 58 19 343 28 41 93 104 5 42 6 23 25 14 276 59 369 105 24 98 8 123 340 15 51 187 124 82 155 7 134
internal_value=0 -0.0263861 0.0518345 0.0329527 -0.00905882 -0.0555923 -0.0257921 0.0736764 -0.0411776 0.0964986 -0.0441494 0.0034225 0.0140153 -0.0551644 0.0681024 -0.030241 0.0104682 -0.0201664 -0.0726943 -0.0978153 0.0156758 0.0105813 0.00219311 -0.047047 -0.00612615 -0.0862233 0.1403 0.0784022 0.00346363 0.0573122
internal_weight=0 1990 1013 712 1249 741 745 226 488 301 583 257 486 369 221 392 472 129 191 158 504 463 119 327 232 139 88 213 15 193
internal_count=3003 1990 1013 712 1249 741 745 226 488 301 583 257 486 369 221 392 472 129 191 158 504 463 119 327 232 139 88 213 15 193
is_linear=0
shrinkage=0.1


Tree=15
num_leaves=31
num_cat=0
split_feature=3 3 3 7 15 7 15 2 7 18 2 9 3 16 13 9 19 9 2 18 14 9 13 9 9 11 15 9 7 14
split_gain=335.998 106.635 51.5289 44.0095 36.0442 32.993 31.1294 26.7596 26.4516 24.7234 22.9872 21.4128 19.3097 18.6319 18.5218 17.7344 17.3301 15.2518 15.2271 14.8328 15.6716 14.1582 12.894 11.7893 11.3871 14.1848 11.8948 11.179 11.1026 9.66652
threshold=42.350000000000001 40.45000000000001 44.150000000000013 2.5000000000000004 8.5000000000000018 3.5000000000000004 5.5000000000000009 1.4500000000000002 2.5000000000000004 40.050000000000004 8.7500000000000018 10.500000000000002 38.550000000000004 5.5000000000000009 1.5000000000000002 10.500000000000002 55123200000000008 10.500000000000002 2.5500000000000003 41.150000000000013 5.5000000000000009 10.500000000000002 2.5000000000000004 7.5000000000000009 7.5000000000000009 25.500000000000004 8.5000000000000018 7.5000000000000009 1.5000000000000002 9.5000000000000018
decision_type=2 2 2 2 2 2 2 2 2 2 2 2 2 2 2 2 2 2 2 2 2 2 2 2 2 2 2 2 2 2
left_child=1 5 4 7 8 6 12 24 14 11 19 -9 -1 15 -2 22 -17 -10 -11 -4 -21 28 -5 -16 25 -3 -26 -14 -8 -28
right_child=2 3 10 13 -6 -7 21 9 17 18 -12 -13 27 -15 23 16 -18 -19 -20 20 -22 -23 -24 -25 26 -27 29 -29 -30 -31
leaf_value=-0.13979546544967522 -0.015007662016053375 0.0081160509754211446 0.052036512713684174 -0.061835914428466081 0.10137474010728027 -0.10045893540234363 -0.11412279961240052 0.018084079878987872 0.015041743915834745 0.04014713761588893 0.28329367857999493 -0.075992327744758281 -0.0075707449003916648 -0.0030313571689630728 0.12023264666496968 -0.10388155895887495 0.074103633980276751 -0.061964796913082612 0.10691228264684215 0.094929262260275871 0.17599250112118681 -0.051508545400565597 -0.0084521433357373759 0.049816445486822819 -0.01130467271919215 0.18468145128323382 0.022720517274809404 -0.056976583384401862 -0.0011037482904701404 0.15567133933041322
leaf_weight=26 42 13.000000000000002 49 73 91 98 8.9999999999999982 146 97 183 6.9999999999999991 29 52 189 26 62 5.9999999999999991 35 42 86 33 87 119 278 448 6.9999999999999991 25 384 254 6.9999999999999991
leaf_count=26 42 13 49 73 91 98 9 146 97 183 7 29 52 189 26 62 6 35 42 86 33 87 119 278 448 7 25 384 254 7
internal_value=0 -0.0191964 0.0582857 -0.00135178 0.0436908 -0.0456495 -0.0390346 0.0114058 0.0327092 0.0306844 0.10574 0.00249428 -0.0560766 -0.0269238 0.047239 -0.0442918 -0.088177 -0.00537666 0.05261 0.098342 0.117409 -0.0165391 -0.0287491 0.0558389 -0.004017 0.0699139 -0.00709746 -0.0510841 -0.00497132 0.0518035
internal_weight=0 2259 744 1349 569 910 812 900 478 400 175 175 462 449 346 260 68 132 225 168 119 350 192 304 500 20 480 436 263 32
internal_count=3003 2259 744 1349 569 910 812 900 478 400 175 175 462 449 346 260 68 132 225 168 119 350 192 304 500 20 480 436 263 32
is_linear=0
shrinkage=0.1


Tree=16
num_leaves=31
num_cat=0
split_feature=3 10 10 2 8 18 3 18 16 2 9 18 8 10 8 13 10 2 18 10 12 18 9 10 18 18 2 9 9 10
split_gain=274.589 84.0581 55.0188 51.3477 29.5977 27.3095 24.8714 24.6845 23.4356 22.6124 22.5465 19.1367 19.1074 20.1469 18.2787 17.8179 21.9029 17.6381 16.5749 15.8313 15.5788 15.3028 14.5877 15.6561 19.3563 13.0895 13.8108 11.8424 11.4415 10.7339
threshold=41.350000000000001 65.000000000000014 150.00000000000003 3.1500000000000008 1.0000000180025095e-35 39.350000000000001 42.95000000000001 41.350000000000001 2.5000000000000004 2.1500000000000008 7.5000000000000009 39.45000000000001 1.0000000180025095e-35 65.000000000000014 1.5000000000000002 3.5000000000000004 220.00000000000003 1.5500000000000003 40.550000000000004 105.00000000000001 319.50000000000006 38.650000000000013 6.5000000000000009 270.00000000000006 39.750000000000007 39.750000000000007 1.7500000000000002 10.500000000000002 10.500000000000002 180.00000000000003
decision_type=2 8 10 2 2 2 2 2 2 2 2 2 2 8 2 2 8 2 2 8 2 2 2 10 2 2 2 2 2 10
left_child=2 6 8 4 19 10 25 -5 18 11 21 -7 -10 -14 -9 -6 29 -12 27 -3 -18 -4 -13 -24 -25 -2 -27 -1 -26 -17
right_child=1 3 5 7 15 9 -8 14 12 -11 17 22 13 -15 -16 16 20 -19 -20 -21 -22 -23 23 24 28 26 -28 -29 -30 -31
leaf_value=-0.041592179173781989 -0.039440368107652335 0.10901063392694693 -0.073686770497000467 0.039862562206597521 -0.023476868858994408 0.067181747146144777 0.10271445507023183 0.16494753816463159 0.065111712277445416 0.059169759599510985 -0.12196318777490792 0.094475471579199791 0.030697446090952991 -0.015959008643316171 0.050826565868340959 0.0037172928580283386 0.0154174667214333 -0.060004527858863836 -0.0050297796628997046 0.028391896114138844 0.10731760290663693 0.097235512160581961 -0.061530971037762817 -0.12154984697011771 0.085253609807710129 0.035450103394838735 0.088409744330181617 -0.10409305615427328 -0.017695148528383397 -0.065996068842643196
leaf_weight=192 14.999999999999998 32 10.000000000000002 190 272 14.999999999999998 159 32 38 23 100 6.9999999999999991 112 533 25 277 39 85 116 102 35 10.999999999999998 265 10.999999999999998 19 119 84 36 25 24
leaf_count=192 15 32 10 190 272 15 159 32 38 23 100 7 112 533 25 277 39 85 116 102 35 11 265 11 19 119 84 36 25 24
internal_value=0 0.0322488 -0.028354 0.0174364 0.00486785 -0.0532388 0.0726392 0.0571776 -0.0145183 -0.0368092 -0.0823494 -0.0432639 -0.00379765 -0.00785742 0.114894 -0.00399154 0.0101418 -0.0934957 -0.0358038 0.0476441 0.0588837 0.0158439 -0.0483302 -0.0514541 -0.00290197 0.0507036 0.0573644 -0.0514607 0.02676 -0.00184125
internal_weight=0 1405 1598 1028 781 571 377 247 1027 365 206 342 683 645 57 647 375 185 344 134 74 21 327 320 55 218 203 228 44 301
internal_count=3003 1405 1598 1028 781 571 377 247 1027 365 206 342 683 645 57 647 375 185 344 134 74 21 327 320 55 218 203 228 44 301
is_linear=0
shrinkage=0.1


Tree=17
num_leaves=31
num_cat=0
split_feature=3 10 8 7 3 10 18 18 10 18 9 1 8 10 10 10 10 7 10 1 7 13 8 16 10 9 10 18 18 9
split_gain=224.299 76.3383 51.445 54.4641 38.7693 36.9861 35.3733 49.0546 31.5514 28.0056 27.9878 24.4332 22.2161 19.0182 22.8572 20.7218 17.983 17.6071 17.6019 17.5382 15.7133 15.4746 16.5107 15.4353 15.3245 13.4426 13.265 13.2021 14.5636 13.0101
threshold=42.350000000000001 80.000000000000014 1.5000000000000002 3.5000000000000004 45.050000000000004 80.000000000000014 40.250000000000007 40.350000000000001 450.00000000000006 39.150000000000013 7.5000000000000009 2.5000000000000004 1.0000000180025095e-35 135.00000000000003 350.00000000000006 105.00000000000001 180.00000000000003 1.5000000000000002 350.00000000000006 3.5000000000000004 2.5000000000000004 1.5000000000000002 1.5000000000000002 2.5000000000000004 105.00000000000001 10.500000000000002 115.00000000000001 40.550000000000004 41.350000000000001 6.5000000000000009
decision_type=2 8 2 2 2 8 2 2 10 2 2 2 2 10 10 10 10 2 8 2 2 2 2 2 10 2 10 2 2 2
left_child=1 9 8 6 5 20 11 18 12 -1 -9 -4 -3 15 16 -12 -15 -11 -8 -14 -2 -7 24 -19 -23 -25 -17 -21 -29 -13
right_child=4 2 3 -5 -6 21 7 10 -10 17 13 29 19 14 -16 26 -18 23 -20 27 -22 22 -24 25 -26 -27 -28 28 -30 -31
leaf_value=-0.063878628546008245 0.081047636635039513 0.035884697976598774 -0.085821232495107563 -0.1119485273958901 0.11480741191936726 -0.030026488915446542 0.17117972700759265 0.12897848479876098 -0.082308278631640461 -0.12166392699510659 -0.038125321013641265 0.070671152868763021 -0.029047414049152533 -0.043430463183830335 0.1015149744574681 0.12143464682652022 -0.13431068418178838 0.00018531176236759225 0.016478829775495186 0.018670781644391801 0.027221819202020044 0.080001013146517364 0.0020242078616477567 0.052153097073877622 0.022228815398911889 0.0049644279820114327 0.011794333591270013 -0.040110079294655959 0.028620245764504195 -0.03988568893254401
leaf_weight=38 211 126 141 99 77 54 19.000000000000004 11.999999999999998 53 7.9999999999999991 103 10.999999999999998 278 64 7.9999999999999991 12.999999999999998 33 139 11.999999999999998 235 73 81 142 237 106 81 73 103 44 329
leaf_count=38 211 126 141 99 77 54 19 12 53 8 103 11 278 64 8 13 33 139 12 235 73 81 142 237 106 81 73 103 44 329
internal_value=0 -0.0156843 -0.0255229 -0.041895 0.047622 0.0398659 -0.0334167 -0.00857285 -0.00762868 0.0186629 -0.0207164 -0.0508229 -0.00259303 -0.0268264 -0.0609494 -0.00786916 -0.0743485 0.0254083 0.111296 -0.00993878 0.0672121 0.0195884 0.0277318 0.0279828 0.0472531 0.0401333 0.0283679 0.0039675 -0.0195377 -0.0363088
internal_weight=0 2259 1756 917 744 667 818 337 839 503 306 481 786 294 105 189 97 465 31 660 284 383 329 457 187 318 86 382 147 340
internal_count=3003 2259 1756 917 744 667 818 337 839 503 306 481 786 294 105 189 97 465 31 660 284 383 329 457 187 318 86 382 147 340
is_linear=0
shrinkage=0.1


Tree=18
num_leaves=31
num_cat=0
split_feature=2 18 10 18 2 2 18 10 8 10 12 10 10 2 10 2 18 8 10 18 12 10 13 10 18 18 18 18 2 16
split_gain=169.263 69.6626 67.1762 35.976 28.8511 25.0935 21.9846 20.159 20.6693 20.1107 24.272 17.4739 16.3877 15.2407 14.6281 19.024 13.9091 13.4925 16.912 12.9198 12.8294 16.0319 12.6924 12.5688 12.1765 13.0069 11.7874 11.655 14.0103 11.5759
threshold=1.7500000000000002 41.150000000000013 150.00000000000003 41.350000000000001 4.4500000000000011 3.5500000000000003 39.350000000000001 80.000000000000014 1.5000000000000002 150.00000000000003 722.50000000000011 270.00000000000006 450.00000000000006 8.7500000000000018 80.000000000000014 -0.34999999999999992 38.550000000000004 1.0000000180025095e-35 95.000000000000014 41.250000000000007 890.50000000000011 65.000000000000014 5.5000000000000009 450.00000000000006 39.45000000000001 42.050000000000004 39.150000000000013 39.650000000000013 3.8500000000000001 4.5000000000000009
decision_type=2 2 10 2 2 2 2 8 2 10 2 10 10 2 8 2 2 2 10 2 2 8 2 10 2 2 2 2 2 2
left_child=2 5 3 14 9 7 -4 26 23 20 -11 24 -13 22 16 -16 -1 -17 -19 -18 21 -3 -7 -9 -8 -26 -2 28 -24 -5
right_child=1 4 6 29 -6 13 11 8 -10 10 -12 12 -14 -15 15 17 19 18 -20 -21 -22 -23 27 -25 25 -27 -28 -29 -30 -31
leaf_value=-0.11972907859384688 -0.054062356871080491 0.11706294014195653 -0.083212175891600793 0.0062775870056299803 0.14454199955782934 0.010725589986844695 0.057260278372929241 0.025673782211667696 -0.024606496064107683 -0.03316209414020807 0.10709265789778422 0.061455796957445678 -0.039748640765894239 0.21713035505744793 -0.0704385790627957 0.036604463661976179 0.013225712362582224 -0.03933669808357694 -0.0037012047578485587 -0.068543150803940564 0.01645599555155644 0.05855604863245082 -0.068275525014539776 -0.055940533423190879 -0.054624197334903084 0.032862317112224343 0.041750108867566686 0.090707705745866285 0.056492313016716568 0.043981735880353132
leaf_weight=8.9999999999999982 13.999999999999998 72 139 210 42 83 10.999999999999998 186 270 45 17 32 32 4.9999999999999991 81 41 242 289 247 21 39 134 11.999999999999998 21 304 18 155 63 36 133
leaf_count=9 14 72 139 210 42 83 11 186 270 45 17 32 32 5 81 41 242 289 247 21 39 134 12 21 304 18 155 63 36 133
internal_value=0 0.0292227 -0.019288 -0.00678376 0.0668077 0.0136995 -0.0489855 0.004135 -0.00637984 0.056173 0.00529485 -0.0370019 0.0108536 0.0447481 -0.0169931 -0.0250566 0.00251344 -0.0186858 -0.0229151 0.00669664 0.0690483 0.0790051 0.0403053 0.0173941 -0.0461993 -0.0497336 0.033813 0.0624234 0.0253004 0.0208976
internal_weight=0 1194 1809 1273 349 845 536 646 477 307 62 397 64 199 930 658 272 577 536 263 245 206 194 207 333 322 169 111 48 343
internal_count=3003 1194 1809 1273 349 845 536 646 477 307 62 397 64 199 930 658 272 577 536 263 245 206 194 207 333 322 169 111 48 343
is_linear=0
shrinkage=0.1


Tree=19
num_leaves=31
num_cat=0
split_feature=3 10 7 2 3 2 7 15 9 18 9 9 2 10 10 2 12 19 2 7 9 18 9 12 2 18 18 12 18 7
split_gain=151.186 52.9586 33.9822 28.9053 25.7993 22.0707 20.5744 16.9569 18.6376 16.2976 20.8321 22.2829 15.8537 15.6101 15.1948 14.7931 14.2759 15.6663 12.8438 12.5753 14.1093 12.2917 12.2937 13.5776 12.1128 20.7823 11.8377 11.8068 11.3789 15.8087
threshold=41.250000000000007 80.000000000000014 3.5000000000000004 4.3500000000000005 39.250000000000007 3.5500000000000003 2.5000000000000004 7.5000000000000009 10.500000000000002 41.45000000000001 10.500000000000002 8.5000000000000018 1.4500000000000002 65.000000000000014 1100.0000000000002 -0.34999999999999992 193.50000000000003 26308800000000004 8.7500000000000018 2.5000000000000004 7.5000000000000009 41.550000000000004 10.500000000000002 645.50000000000011 2.0500000000000003 40.45000000000001 41.150000000000013 883.50000000000011 40.250000000000007 2.5000000000000004
decision_type=2 8 2 2 2 2 2 2 2 2 2 2 2 8 10 2 2 2 2 2 2 2 2 2 2 2 2 2 2 2
left_child=2 5 4 6 -1 19 12 8 13 -8 11 -11 -3 -6 -4 -15 -14 -18 -5 20 -2 -22 -23 -24 -9 -26 -7 -25 -10 -30
right_child=1 3 14 18 7 26 9 24 28 10 -12 -13 16 15 -16 -17 17 -19 -20 -21 21 22 23 27 25 -27 -28 -29 29 -31
leaf_value=-0.051036999990583767 0.13543091307254479 -0.0093603812417717772 -0.058757665574306062 0.055037913815658451 0.023665808199681188 0.056420297133901703 -0.037308240663979232 -0.0033943533665673101 -0.082232013100485737 -0.10092910913401452 -0.083850320205065068 0.069493679868805253 -0.002534891447680444 -0.061321129577453053 -0.18098266345933989 -0.012424408196555693 0.023708401191818052 0.079113980323222699 0.22043337298627017 0.005917849285688101 0.024147833402899832 0.034739641589370533 0.056241166437851112 0.19971788795292167 0.02290739718839805 0.17106007265572967 0.12153506322433499 0.070164371898952749 0.0032448554632981616 -0.08825153053280721
leaf_weight=194 17 206 135 77 107 59 179 181 64 8.9999999999999982 15.999999999999998 52 128 69 10.999999999999998 599 196 69 4.9999999999999991 98 174 71 40 17.000000000000004 68 10.999999999999998 53 11.999999999999998 58 28
leaf_count=194 17 206 135 77 107 59 179 181 64 9 16 52 128 69 11 599 196 69 5 98 174 71 40 17 68 11 53 12 58 28
internal_value=0 0.0227917 -0.0220893 0.00840835 -0.0172321 0.0477033 0.00296905 -0.0116978 -0.0180398 -0.0207597 0.0177104 0.0443493 0.0131102 -0.011795 -0.0679664 -0.0174751 0.0248887 0.0381348 0.065123 0.0373831 0.0466991 0.0418951 0.0639524 0.0940119 0.0108653 0.0435363 0.0872335 0.14611 -0.0503046 -0.0265447
internal_weight=0 1478 1525 937 1379 541 855 1185 925 256 77 61 599 775 146 668 393 265 82 429 331 314 140 69 260 79 112 29 150 86
internal_count=3003 1478 1525 937 1379 541 855 1185 925 256 77 61 599 775 146 668 393 265 82 429 331 314 140 69 260 79 112 29 150 86
is_linear=0
shrinkage=0.1


Tree=20
num_leaves=31
num_cat=0
split_feature=3 2 3 18 15 15 18 9 9 2 9 16 14 9 2 18 18 3 2 9 19 14 11 19 18 11 11 19 15 18
split_gain=122.619 42.5391 27.3984 24.1702 19.2277 18.539 17.2326 15.8141 14.2707 12.1348 12.4648 11.7271 13.9594 10.0754 11.6024 11.0548 9.61368 8.62397 8.67772 8.36528 14.7232 9.13882 8.26481 8.20785 7.95851 9.66803 7.78166 7.72521 7.67314 7.18606
threshold=41.350000000000001 3.1500000000000008 39.150000000000013 41.050000000000004 1.5000000000000002 5.5000000000000009 41.95000000000001 7.5000000000000009 10.500000000000002 7.1500000000000012 7.5000000000000009 7.5000000000000009 1.5000000000000002 10.500000000000002 1.9500000000000002 39.650000000000013 39.350000000000001 39.95000000000001 -1.0499999999999998 9.5000000000000018 9028800000000002 4.5000000000000009 5.5000000000000009 22507200000000004 40.050000000000004 14.500000000000002 3.5000000000000004 67694400000000008 8.5000000000000018 41.050000000000004
decision_type=2 2 2 2 2 2 2 2 2 2 2 2 2 2 2 2 2 2 2 2 2 2 2 2 2 2 2 2 2 2
left_child=2 4 8 11 26 7 19 24 16 10 -5 -3 -13 14 -7 -15 23 -9 -19 -6 21 -21 -17 -1 25 -4 -2 -24 -8 -18
right_child=1 3 5 9 6 13 28 17 -10 -11 -12 12 -14 15 -16 22 29 18 -20 20 -22 -23 27 -25 -26 -27 -28 -29 -30 -31
leaf_value=-0.085360536918755156 0.048357405987032656 0.00096103131230644903 -0.056991761517493349 0.19186336710106242 0.021787280627494996 -0.0033747219605677102 0.034681341587164898 -0.047238150612329659 -0.10794408364437658 0.23691799184314277 0.069982385049475918 0.19755025374172042 0.041690817692229439 -0.058828344969235849 0.032629601991897274 -0.057293505264990101 0.027328461924656967 -0.10296990444311782 -0.020251267894348269 -0.0065372687715031762 -0.019731952437349463 0.036770227010431297 -0.0014863275391070636 -0.030790365459551779 0.069540170194969678 0.03685335266305808 -0.030079486859943379 0.095162237920575932 0.089123427213165976 -0.093266784725893712
leaf_weight=49 13.999999999999998 83 19 8.9999999999999982 314 309 157 187 40 4.9999999999999991 124 5.9999999999999991 136 54 126 25 28 12.999999999999998 519 83 194 118 102 63 23 26 131 8.9999999999999982 31 5.9999999999999991
leaf_count=49 14 83 19 9 314 309 157 187 40 5 124 6 136 54 126 25 28 13 519 83 194 118 102 63 23 26 131 9 31 6
internal_value=0 0.0215502 -0.0189475 0.0510308 0.0112801 -0.0141951 0.0167417 -0.0244063 -0.0550249 0.0839795 0.07823 0.0308223 0.0482764 -0.00133708 0.00705412 -0.0205485 -0.0405265 -0.0287657 -0.0222726 0.00960437 -8.02666e-05 0.018887 -0.00534914 -0.0546648 0.0216878 -0.00277014 -0.0225063 0.00635004 0.0436585 0.00604695
internal_weight=0 1405 1598 363 1042 1412 897 787 186 138 133 225 142 625 435 190 146 719 532 709 395 201 136 112 68 45 145 111 188 34
internal_count=3003 1405 1598 363 1042 1412 897 787 186 138 133 225 142 625 435 190 146 719 532 709 395 201 136 112 68 45 145 111 188 34
is_linear=0
shrinkage=0.1


Tree=21
num_leaves=31
num_cat=0
split_feature=3 10 10 8 10 2 8 10 10 9 2 19 2 9 16 18 10 19 12 19 10 12 9 18 19 18 10 10 1 9
split_gain=99.5597 37.3493 34.4956 22.1344 22.3142 21.8918 21.5124 20.4827 20.9492 19.4472 19.2588 19.2283 22.1776 15.3131 15.6086 14.2034 13.9149 13.69 13.3536 12.0336 11.9192 9.89946 11.7859 9.79214 9.57211 9.28372 21.0471 17.3599 11.5323 9.53871
threshold=41.650000000000013 80.000000000000014 135.00000000000003 1.5000000000000002 65.000000000000014 1.6500000000000001 1.0000000180025095e-35 270.00000000000006 150.00000000000003 7.5000000000000009 5.2500000000000009 19396800000000004 0.95000000000000007 7.5000000000000009 4.5000000000000009 39.750000000000007 115.00000000000001 79228800000000016 722.50000000000011 12052800000000002 115.00000000000001 762.50000000000011 9.5000000000000018 39.45000000000001 37238400000000008 40.050000000000004 95.000000000000014 105.00000000000001 4.5000000000000009 8.5000000000000018
decision_type=2 8 10 2 8 2 2 10 10 2 2 2 2 2 2 2 10 2 2 2 8 2 2 2 2 2 10 10 2 2
left_child=2 13 3 5 -5 17 10 8 -8 -4 20 12 -11 -2 -15 -9 25 23 -17 -14 -3 22 -13 -1 -23 27 -27 29 -28 -6
right_child=1 6 9 4 16 -7 7 15 -10 11 -12 21 19 14 -16 18 -18 -19 -20 -21 -22 24 -24 -25 -26 26 28 -29 -30 -31
leaf_value=0.060871342865349724 0.12701730086060203 0.09005304561589357 0.025427272863859863 0.014291670022847862 -0.0094397090230325335 0.065902142177873574 0.0061104225278454183 -0.07345540949699074 -0.039688494942078371 -0.08129987929556784 0.23678305170123709 -0.0037210594127531195 -0.013903831470303647 0.012089967185335665 0.053935522462134289 -0.0063989298768972348 0.0049823662862243847 -0.04717337206371891 0.11326101560401383 -0.068699260165022966 0.020018398534106294 0.010868036370174252 -0.044330288170426023 0.0054771875753520331 0.16637418160598438 -0.031777076128205101 0.0098453961508532025 -0.1420972483557181 0.14285543094148384 -0.055261293135485882
leaf_weight=36 22 32 55 196 69 69 376 6.9999999999999991 136 152 4.9999999999999991 146 135 127 299 12.999999999999998 117 45 33 57 101 19.000000000000004 140 281 4.9999999999999991 152 16.000000000000004 18 10.999999999999998 133
leaf_count=36 22 32 55 196 69 69 376 7 136 152 5 146 135 127 299 13 117 45 33 57 101 19 140 281 5 152 16 18 11 133
internal_value=0 0.0230965 -0.0143543 -0.00360544 -0.0144325 0.0142805 0.00871635 7.10143e-05 -0.00605491 -0.0316828 0.0441121 -0.0364856 -0.052763 0.0456619 0.0414604 0.0592498 -0.0253432 0.00444104 0.0794441 -0.0301712 0.0368688 -0.0184231 -0.0235997 0.011768 0.0432652 -0.0342356 -0.017325 -0.0479947 0.0640347 -0.0396094
internal_weight=0 1151 1852 1143 712 431 703 565 512 709 138 654 344 448 426 53 516 362 46 192 133 310 286 317 24 399 179 220 27 202
internal_count=3003 1151 1852 1143 712 431 703 565 512 709 138 654 344 448 426 53 516 362 46 192 133 310 286 317 24 399 179 220 27 202
is_linear=0
shrinkage=0.1


Tree=22
num_leaves=31
num_cat=0
split_feature=2 10 18 19 9 18 10 10 2 10 19 19 19 10 12 12 18 13 10 18 2 12 12 19 11 12 10 12 2 12
split_gain=84.6011 38.0934 37.0088 23.2051 19.8328 26.4148 16.7745 18.376 16.9419 14.8417 22.3306 14.8322 18.7912 12.5732 14.0103 11.2861 10.7006 10.569 10.3533 10.2646 10.2302 10.133 9.95046 9.70289 9.58074 9.0597 8.93133 8.55063 8.52028 8.30206
threshold=1.7500000000000002 150.00000000000003 41.150000000000013 78580800000000016 10.500000000000002 40.45000000000001 150.00000000000003 270.00000000000006 2.6500000000000008 65.000000000000014 11188800000000002 19915200000000004 6393600000000001 80.000000000000014 115.50000000000001 900.50000000000011 42.650000000000013 4.5000000000000009 270.00000000000006 41.750000000000007 0.8500000000000002 171.50000000000003 350.00000000000006 63547200000000008 10.500000000000002 912.50000000000011 900.00000000000011 722.50000000000011 5.7500000000000009 784.50000000000011
decision_type=2 10 2 2 2 2 10 10 2 10 2 2 2 10 2 2 2 2 10 2 2 2 2 2 2 2 8 2 2 2
left_child=1 3 4 9 13 26 8 -8 -4 10 16 12 -3 14 -2 17 -1 -10 28 -17 24 -16 -18 -11 -12 -7 -6 -13 -15 -20
right_child=2 11 6 -5 5 25 7 -9 15 23 20 27 -14 18 21 19 22 -19 29 -21 -22 -23 -24 -25 -26 -27 -28 -29 -30 -31
leaf_value=0.029703809643846165 -0.012258561780577786 -0.027471965291336355 0.032132541780189448 -0.046859821634217036 -0.031654332753625579 0.012411313232088583 -0.023308034770561661 0.10180634532338073 0.058718588858027311 -0.00810720558215435 -0.062855522913918868 -0.022887894198997401 -0.076566803179847112 0.00042076023091262182 0.16555878486734718 -0.0049943206749498087 0.038794162554837266 0.11859485143247764 0.020583022788568262 0.14187448662333021 0.016960892845805289 0.043103464791951998 0.16507265077322469 -0.12644553520432189 -0.0068150989382989857 0.095265281028625193 -0.10230232520322068 0.041512006987464892 0.10480412351656987 0.14763771045292853
leaf_weight=185 49 170 128 116 121 59 54 14.999999999999998 49 680 43 199 144 347 6.9999999999999991 23.000000000000004 13.000000000000002 74 12.000000000000002 5.9999999999999991 112 195 11.999999999999998 6.9999999999999991 105 17 21 23 7.9999999999999991 8.9999999999999982
leaf_count=185 49 170 128 116 121 59 54 15 49 680 43 199 144 347 7 23 13 74 12 6 112 195 12 7 105 17 21 23 8 9
internal_value=0 -0.0136362 0.0206599 -0.00422004 0.00934538 -0.0166364 0.0480545 0.00389074 0.0589378 5.49951e-05 0.0137482 -0.0359996 -0.0499868 0.0183789 0.0357108 0.0815106 0.0380019 0.0947417 0.00680897 0.0253923 -0.00584136 0.047347 0.0994078 -0.00931298 -0.0230971 0.0309444 -0.0421023 -0.0162158 0.00277306 0.075035
internal_weight=0 1809 1194 1273 845 218 349 69 280 1157 470 536 314 627 251 152 210 123 376 29 260 202 25 687 148 76 142 222 355 21
internal_count=3003 1809 1194 1273 845 218 349 69 280 1157 470 536 314 627 251 152 210 123 376 29 260 202 25 687 148 76 142 222 355 21
is_linear=0
shrinkage=0.1


Tree=23
num_leaves=31
num_cat=0
split_feature=2 7 18 7 8 9 18 9 2 8 2 8 12 19 8 7 7 7 15 9 8 12 15 18 8 18 9 12 9 8
split_gain=69.0584 38.1196 35.5642 29.3067 26.7898 21.3321 20.7233 19.0148 16.2108 15.6715 11.7073 13.83 11.6796 11.563 10.5997 14.3566 9.75788 9.64057 9.26753 9.22624 21.0424 9.87224 9.93196 9.97057 31.5793 10.628 9.19476 9.16204 8.9997 11.0129
threshold=1.6500000000000001 2.5000000000000004 39.750000000000007 2.5000000000000004 1.0000000180025095e-35 10.500000000000002 39.850000000000001 10.500000000000002 4.9500000000000011 1.0000000180025095e-35 5.8500000000000005 1.5000000000000002 858.50000000000011 94305600000000016 1.5000000000000002 3.5000000000000004 1.5000000000000002 1.0000000180025095e-35 4.5000000000000009 7.5000000000000009 1.5000000000000002 68.000000000000014 2.5000000000000004 42.650000000000013 1.5000000000000002 40.550000000000004 8.5000000000000018 904.50000000000011 7.5000000000000009 1.5000000000000002
decision_type=2 2 2 2 2 2 2 2 2 2 2 2 2 2 2 2 2 2 2 2 2 2 2 2 2 2 2 2 2 2
left_child=1 6 5 8 18 10 17 13 28 -5 11 -2 -11 14 -6 -16 -13 -1 -3 20 -8 -21 -23 25 -25 -24 -19 -28 29 -4
right_child=2 4 3 9 7 -7 19 -9 -10 12 -12 16 -14 -15 15 -17 -18 26 -20 21 -22 22 23 24 -26 -27 27 -29 -30 -31
leaf_value=-0.10354560468683172 0.035019589748682668 0.010439027433852589 0.019748737674441803 0.093874848303563768 -0.00095998515245395571 -0.047980584009087827 -0.046562909987555218 -0.070701003808123108 0.1072608263024242 -0.017735375989183452 0.11826302609274307 -0.13934332182464468 0.031339689263040392 -0.098453119251855681 -0.022963220302846254 -0.077611697042679895 -0.0095456151862056832 -0.00095980823727992198 0.13019967119737177 -0.023477455281552807 0.11260783210208099 -0.0097534824511173283 0.039785686925068203 0.0059930015036530736 0.2175051133841128 0.0033499166919558712 -0.045567468712159789 0.042304055395690543 0.033326858773297809 0.13663606427124944
leaf_weight=14.999999999999998 86 14.000000000000002 13.999999999999998 17 134 100 12.999999999999998 136 34 191 8.9999999999999982 5.9999999999999991 65 22 214 62 167 123 11.999999999999998 117 23 218 105 24 9.9999999999999982 337 136 12.999999999999998 567 19
leaf_count=15 86 14 14 17 134 100 13 136 34 191 9 6 65 22 214 62 167 123 12 117 23 218 105 24 10 337 136 13 567 19
internal_value=0 -0.0130261 0.0176542 0.0282925 -0.0335479 -0.00856572 -0.00227656 -0.0380915 0.040088 0.000899251 0.00614132 0.0022452 -0.00527491 -0.0278256 -0.0240358 -0.0352393 -0.0140473 -0.0254999 0.0657132 0.00559249 0.0551295 0.00339356 0.00792369 0.0160195 0.0682024 0.0120055 -0.0211959 -0.0379008 0.0362815 0.0870475
internal_weight=0 1728 1275 907 594 368 1134 568 634 273 268 259 256 432 410 276 173 287 26 847 36 811 694 476 34 442 272 149 600 33
internal_count=3003 1728 1275 907 594 368 1134 568 634 273 268 259 256 432 410 276 173 287 26 847 36 811 694 476 34 442 272 149 600 33
is_linear=0
shrinkage=0.1


Tree=24
num_leaves=31
num_cat=0
split_feature=2 7 10 9 8 10 7 18 19 19 10 10 18 18 7 8 18 18 18 10 8 2 16 9 9 18 2 19 18 13
split_gain=60.6831 48.4132 34.4675 29.2546 27.2845 31.0107 24.9183 21.4863 20.851 16.0545 20.196 25.6446 15.7006 14.5625 13.1934 11.8316 29.1763 17.8117 13.2312 12.0687 11.4802 11.3195 10.5829 10.2986 19.4767 26.4845 10.032 9.58158 9.00327 8.95795
threshold=3.1500000000000008 2.5000000000000004 65.000000000000014 10.500000000000002 1.5000000000000002 80.000000000000014 1.5000000000000002 39.850000000000001 1.0432800000000002e+17 23025600000000004 150.00000000000003 115.00000000000001 39.150000000000013 41.150000000000013 3.5000000000000004 1.5000000000000002 42.650000000000013 39.750000000000007 40.050000000000004 55.000000000000007 1.0000000180025095e-35 1.6500000000000001 7.5000000000000009 7.5000000000000009 9.5000000000000018 40.95000000000001 0.8500000000000002 19656000000000004 40.550000000000004 1.5000000000000002
decision_type=2 2 8 2 2 10 2 2 2 2 10 10 2 2 2 2 2 2 2 10 2 2 2 2 2 2 2 2 2 2
left_child=1 2 6 4 8 12 -1 20 26 10 11 -7 -6 22 -11 -8 17 -17 -19 -18 -4 -9 -2 -20 25 -25 -3 -13 -12 -24
right_child=13 3 7 -5 5 9 15 21 -10 14 28 27 -14 -15 -16 16 19 18 23 -21 -22 -23 29 24 -26 -27 -28 -29 -30 -31
leaf_value=-0.12676609948883263 -0.0041156058800485406 -0.0046068254380323172 0.1164071136841735 -0.055528523068901485 -0.065411852331960729 -0.079615737563677652 0.0071974802671150003 -0.0012095544542166257 -0.12681101496971431 0.013266520538056707 -0.082175438946500631 0.038006417643979266 0.014558631373255316 0.063604844663583668 -0.087748386015537527 -0.074850773541780408 0.073775752309408596 0.14433375483501279 0.12129012420621631 0.24174161933074334 -0.02291621893632895 0.021495087219284115 0.14832326265136403 -0.12795686701301026 0.069478440835613928 0.027999755522881344 0.039106508072333422 -0.10925063554332744 -0.1552008070857443 0.032866423833111579
leaf_weight=8.9999999999999982 94 90 5.9999999999999991 226 29 62 70 695 9.9999999999999982 54 52 38 160 131 17 11.999999999999998 7.0000000000000009 13.999999999999998 14.999999999999998 11 414 321 6.9999999999999991 13.999999999999998 72 49 126 4.9999999999999991 25 168
leaf_count=9 94 90 6 226 29 62 70 695 10 54 52 38 160 131 17 12 7 14 15 11 414 321 7 14 72 49 126 5 25 168
internal_value=0 -0.00557249 0.00429127 -0.0244284 -0.0139065 -0.028358 0.0368622 -0.00190083 0.0143571 -0.0512516 -0.0669853 -0.0384589 0.00228803 0.036263 -0.0109201 0.0424404 0.0551569 0.0427549 0.0513601 0.176422 -0.0209259 0.00596386 0.0229478 0.0426826 0.0339484 -0.00665727 0.0208926 0.0208835 -0.105885 0.0374847
internal_weight=0 2603 1709 894 668 442 273 1436 226 253 182 105 189 400 71 264 194 176 164 18 420 1016 269 150 135 63 216 43 77 175
internal_count=3003 2603 1709 894 668 442 273 1436 226 253 182 105 189 400 71 264 194 176 164 18 420 1016 269 150 135 63 216 43 77 175
is_linear=0
shrinkage=0.1


Tree=25
num_leaves=31
num_cat=0
split_feature=2 7 10 8 10 7 18 19 19 19 8 18 18 10 18 2 8 18 18 12 12 3 12 18 10 8 18 10 10 18
split_gain=49.1533 39.2147 27.9187 24.5031 20.9453 20.1838 17.4039 14.1936 15.9253 12.205 16.1515 14.0976 11.7956 10.4323 13.0067 10.2923 9.58361 23.6328 14.4275 17.4226 14.9467 12.6459 12.3955 12.2109 9.77564 9.04771 15.6204 8.89466 14.5274 16.6561
threshold=3.1500000000000008 2.5000000000000004 65.000000000000014 1.0000000180025095e-35 125.00000000000001 1.5000000000000002 39.850000000000001 1.0432800000000002e+17 1.2078720000000002e+17 22939200000000004 1.5000000000000002 41.050000000000004 41.150000000000013 80.000000000000014 39.550000000000004 -0.34999999999999992 1.5000000000000002 42.650000000000013 39.750000000000007 885.50000000000011 718.50000000000011 41.350000000000001 648.50000000000011 40.45000000000001 55.000000000000007 1.5000000000000002 41.750000000000007 150.00000000000003 125.00000000000001 41.150000000000013
decision_type=2 2 8 2 10 2 2 2 2 2 2 2 2 10 2 2 2 2 2 2 2 2 2 2 8 2 2 8 10 2
left_child=1 2 5 -3 7 -1 13 25 -9 10 11 -6 -2 14 -4 -8 -7 18 -18 20 22 -22 -20 -21 -19 26 -5 28 -17 -30
right_child=12 3 6 4 9 16 15 8 -10 -11 -12 -13 -14 -15 -16 27 17 24 19 23 21 -23 -24 -25 -26 -27 -28 -29 29 -31
leaf_value=-0.11408948823287363 0.020653009442712492 0.054510840881216951 0.03303068443091111 0.026657782520323761 0.021583806127579066 0.0064777325875053308 -0.033130994244927124 -0.14536377835979583 0.035478011669493256 -0.020491832284281107 -0.081334471799302491 -0.069638501342447159 0.057244360483723167 -0.027354197325748193 -0.049961073509181164 0.01017113784385125 -0.067365695269383727 0.066398176973207337 0.052736309119643401 0.10880092003323694 0.20393653473984494 0.080584577505898369 -0.071937390868405601 -0.036610044896992454 0.21756745405242978 -0.017538328887711032 -0.08218449491533536 -0.0022920705872296596 0.088509590916461989 -0.018873449226974842
leaf_weight=8.9999999999999982 269 40 69 109 36 70 65 16.000000000000004 6.9999999999999991 119 132 32 131 325 26 433 11.999999999999998 7.0000000000000027 70 6.9999999999999991 10.999999999999998 34 8.9999999999999982 33 10.999999999999998 388 14.999999999999998 446 52 20
leaf_count=9 269 40 69 109 36 70 65 16 7 119 132 32 131 325 26 433 12 7 70 7 11 34 9 33 11 388 15 446 52 20
internal_value=0 -0.00501524 0.00386214 -0.0219855 -0.0255685 0.033176 -0.00171075 -0.0134755 -0.090325 -0.0458498 -0.0609378 -0.0213443 0.0326367 -0.0188333 0.0103172 0.00536747 0.0381964 0.0496412 0.0384794 0.0462241 0.0647362 0.110737 0.038533 -0.0111631 0.158779 -0.0100233 0.0134914 0.00799881 0.0170874 0.058681
internal_weight=0 2603 1709 894 854 273 1436 535 23 319 200 68 400 420 95 1016 264 194 176 164 124 45 79 40 18 512 124 951 505 72
internal_count=3003 2603 1709 894 854 273 1436 535 23 319 200 68 400 420 95 1016 264 194 176 164 124 45 79 40 18 512 124 951 505 72
is_linear=0
shrinkage=0.1


Tree=26
num_leaves=31
num_cat=0
split_feature=2 7 8 8 7 8 9 2 3 12 19 9 15 2 16 19 12 19 15 11 2 13 12 2 16 19 9 13 3 3
split_gain=43.6198 20.1553 18.5181 15.3806 14.4837 15.4344 12.9447 10.5816 10.4764 10.225 11.7889 9.68648 8.93252 8.86842 8.5919 7.50986 9.32201 7.05588 7.05558 6.99907 6.92518 6.18466 5.66239 5.54193 5.41862 5.40224 5.33811 5.68687 5.66667 5.48499
threshold=1.4500000000000002 2.5000000000000004 1.0000000180025095e-35 1.0000000180025095e-35 2.5000000000000004 1.5000000000000002 10.500000000000002 5.2500000000000009 38.45000000000001 722.50000000000011 4363200000000000.5 10.500000000000002 2.5000000000000004 3.1500000000000008 6.5000000000000009 61300800000000008 344.50000000000006 78580800000000016 4.5000000000000009 8.5000000000000018 -0.94999999999999984 4.5000000000000009 170.00000000000003 6.3500000000000005 9.5000000000000018 4881600000000001 9.5000000000000018 10.500000000000002 39.750000000000007 43.050000000000004
decision_type=2 2 2 2 2 2 2 2 2 2 2 2 2 2 2 2 2 2 2 2 2 2 2 2 2 2 2 2 2 2
left_child=1 8 7 18 9 11 20 22 -1 13 -11 -6 25 26 -7 -8 -17 -14 -3 -15 -5 -21 -2 -16 -25 -10 28 29 -4 -28
right_child=2 3 4 6 5 14 15 -9 12 10 -12 -13 17 19 23 16 -18 -19 -20 21 -22 -23 -24 24 -26 -27 27 -29 -30 -31
leaf_value=-0.086293530043554001 0.0046380877859450919 0.0051198363948931642 -0.038511572223061327 -0.094192862073586181 0.044536237864899957 -0.032149839491772879 -0.0685924988461281 0.17839209752368124 0.0047407497020472318 0.016220800859467761 0.071623194947898081 -0.01370683597210709 0.0071905050560764003 -0.0099599401159290168 -0.0052724196973628528 -0.065782142882090194 0.11909811281686489 -0.036655335922938341 0.11509837259808534 0.011939708600782136 -0.019987279581015559 0.056695359180529814 0.054667482821854178 0.14471681625669494 0.0037619359583442947 -0.023607345423436558 -0.015979710085761788 0.051146254913570971 0.019732757543207767 0.021351697382786014
leaf_weight=14.999999999999998 30 14.000000000000002 18 12.999999999999998 85 166 105 5.9999999999999991 94 90 67 43 623 33 181 5.9999999999999982 5 39 9.9999999999999982 47 386 90 92 4.9999999999999982 6 236 200 17 232 49
leaf_count=15 30 14 18 13 85 166 105 6 94 90 67 43 623 33 181 6 5 39 10 47 386 90 92 5 6 236 200 17 232 49
internal_value=0 -0.0117001 0.0124148 -0.0273068 0.00891605 -0.004833 -0.0309534 0.0487414 -0.00334655 0.0168425 0.0398639 0.0249702 -0.00209232 0.0115738 -0.0154889 -0.060357 0.0182543 0.00460744 0.0509442 0.0313828 -0.022405 0.0413412 0.0423652 -0.00108413 0.0678323 -0.0155324 0.00504761 -0.00481287 0.0155392 -0.00863337
internal_weight=0 1546 1457 539 1329 486 515 128 1007 843 157 128 992 686 358 116 11 662 24 170 399 137 122 192 11 330 516 266 250 249
internal_count=3003 1546 1457 539 1329 486 515 128 1007 843 157 128 992 686 358 116 11 662 24 170 399 137 122 192 11 330 516 266 250 249
is_linear=0
shrinkage=0.1


Tree=27
num_leaves=31
num_cat=0
split_feature=2 7 2 18 7 18 8 8 8 12 18 2 12 3 13 13 18 7 18 7 0 18 14 13 15 12 3 18 18 0
split_gain=35.332 16.3258 16.3189 13.524 14.2854 12.9801 12.4583 8.42812 7.81044 7.98723 8.03519 7.55168 6.8619 7.16521 6.83321 6.80618 6.71076 6.60611 6.33806 6.2668 7.21458 6.16995 5.90098 7.97762 5.71502 5.70035 5.36342 5.31516 5.43107 5.28259
threshold=1.4500000000000002 2.5000000000000004 4.4500000000000011 39.750000000000007 2.5000000000000004 39.850000000000001 1.0000000180025095e-35 1.5000000000000002 1.0000000180025095e-35 858.50000000000011 39.95000000000001 0.15000000000000005 193.50000000000003 40.750000000000007 9.5000000000000018 2.5000000000000004 40.95000000000001 1.0000000180025095e-35 41.45000000000001 3.5000000000000004 4.5000000000000009 41.95000000000001 1.5000000000000002 5.5000000000000009 4.5000000000000009 213.50000000000003 40.650000000000013 40.050000000000004 40.250000000000007 9.5000000000000018
decision_type=2 2 2 2 2 2 2 2 2 2 2 2 2 2 2 2 2 2 2 2 2 2 2 2 2 2 2 2 2 2
left_child=1 5 3 7 12 17 24 -2 -6 10 -10 26 13 -5 29 -13 22 -1 -11 20 -17 25 -4 -24 -3 -14 -8 -12 -29 -7
right_child=2 6 16 4 8 14 11 -9 9 18 27 15 21 -15 -16 19 -18 -19 -20 -21 -22 -23 23 -25 -26 -27 -28 28 -30 -31
leaf_value=-0.095207090883596954 0.013057404497933143 0.0046078523541929275 0.1137298370083723 0.069338176116099881 0.061087702715179153 0.0036789742621000663 -0.057695736924604016 -0.018493303676546367 0.035069565945213557 0.047920164787296958 -0.12708127489493171 -0.045869094166353909 0.08452880715400099 -0.0007891291093442941 0.044823982073737292 0.0160653026273023 0.073704974002281681 -0.01915559431672062 -0.021627969525789593 -0.0390856613717065 -0.021037653235537183 0.057046636818959232 -0.037512401682009339 0.039273763679910159 0.1035885359202456 0.021770588607208201 -0.017191427604549225 0.010952463748382515 -0.031741601650846128 -0.029709128545967696
leaf_weight=11.999999999999998 127 14.000000000000002 6.9999999999999991 15.999999999999998 17 669 113 254 25 38 4.9999999999999991 78 14.999999999999998 163 38 97 51 237 20 67 114 65 19 47 9.9999999999999982 412 46 38 138 51
leaf_count=12 127 14 7 16 17 669 113 254 25 38 5 78 15 163 38 97 51 237 20 67 114 65 19 47 10 412 46 38 138 51
internal_value=0 -0.0105301 0.0111733 0.00794546 0.0143176 -0.0030119 -0.0245761 -0.0079764 -0.0046118 -0.00884245 -0.0180719 -0.0278581 0.0222448 0.00547923 0.00349522 -0.0197654 0.0458725 -0.0228207 0.023938 -0.0124414 -0.00398084 0.0283444 0.0264279 0.0171687 0.0458498 0.0239752 -0.0459775 -0.0254119 -0.0225236 0.00131398
internal_weight=0 1546 1457 1333 952 1007 539 381 281 264 206 515 671 179 758 356 124 249 58 278 211 492 73 66 24 427 159 181 176 720
internal_count=3003 1546 1457 1333 952 1007 539 381 281 264 206 515 671 179 758 356 124 249 58 278 211 492 73 66 24 427 159 181 176 720
is_linear=0
shrinkage=0.1


Tree=28
num_leaves=31
num_cat=0
split_feature=15 18 7 9 9 19 3 9 18 8 1 7 12 12 12 18 18 3 8 15 19 12 18 19 19 19 12 9 12 19
split_gain=25.3222 17.9781 14.5628 11.9015 9.92782 10.3047 9.11984 9.13664 10.4037 13.8192 9.11723 7.45012 7.31735 10.2952 7.22893 9.6925 8.20828 7.22352 7.61313 6.83181 6.80509 9.20636 6.73146 6.66484 7.75006 8.21052 8.79616 6.63694 6.37017 6.28347
threshold=5.5000000000000009 41.350000000000001 2.5000000000000004 10.500000000000002 10.500000000000002 6393600000000001 39.350000000000001 7.5000000000000009 40.050000000000004 1.5000000000000002 8.5000000000000018 1.5000000000000002 718.50000000000011 734.50000000000011 724.50000000000011 41.050000000000004 39.550000000000004 44.95000000000001 1.5000000000000002 10.500000000000002 55123200000000008 338.00000000000006 41.350000000000001 21643200000000004 27432000000000004 29332800000000004 329.00000000000006 9.5000000000000018 18.500000000000004 64368000000000008
decision_type=2 2 2 2 2 2 2 2 2 2 2 2 2 2 2 2 2 2 2 2 2 2 2 2 2 2 2 2 2 2
left_child=2 3 6 14 5 17 11 8 -8 -10 28 -1 -9 -14 23 16 -16 18 -4 -5 -6 -22 -11 -2 -25 -26 27 -27 -3 -12
right_child=1 10 4 19 20 -7 7 12 9 22 29 -13 13 -15 15 -17 -18 -19 -20 -21 21 -23 -24 24 25 26 -28 -29 -30 -31
leaf_value=-0.12599454817213063 -0.0021221860322640338 -0.043233155900749692 0.029206258086238432 -0.020226424123532566 -0.052545598316035072 -0.026412809365200823 -0.0064812608131606169 -0.0058616764774314656 -0.022579880112687266 0.14037787731132231 0.053397621825530074 -0.023973684551796978 0.096066470139299434 0.0094007761357264574 -0.018260630243272964 -0.028016451230196915 0.060283628069480177 0.091555557987263322 -0.014606349871360067 0.022637812295923466 -0.045071138507406835 0.11484517038867266 0.049673175515627777 0.05680449619623304 -0.077618988596055746 0.021548313745977168 0.049048380253058847 -0.02596853764151253 0.026137366648207858 0.15360432566701776
leaf_weight=7.9999999999999991 369 13.999999999999998 59 240 120 266 37 760 12.999999999999998 18 59 68 14.999999999999998 159 15.999999999999998 21 79 8.9999999999999982 121 44 8.9999999999999982 5.9999999999999991 14.999999999999998 45 9.9999999999999982 66 54 53 243 6.9999999999999991
leaf_count=8 369 14 59 240 120 266 37 760 13 18 59 68 15 159 16 21 79 9 121 44 9 6 15 45 10 66 54 53 243 7
internal_value=0 0.0103688 -0.00813239 0.00372619 -0.0207933 -0.0137275 -0.00129805 0.00119902 0.0329946 0.064747 0.0308725 -0.0347127 -0.0016265 0.016872 0.0106217 0.0334646 0.0470551 0.00412593 -0.000245551 -0.0135855 -0.0446077 0.0188954 0.0991485 0.00618324 0.0196249 0.0104824 0.015575 0.000385346 0.0223584 0.0640256
internal_weight=0 1320 1683 997 590 455 1093 1017 83 46 323 76 934 174 713 116 95 189 180 284 135 15 33 597 228 183 173 119 257 66
internal_count=3003 1320 1683 997 590 455 1093 1017 83 46 323 76 934 174 713 116 95 189 180 284 135 15 33 597 228 183 173 119 257 66
is_linear=0
shrinkage=0.1


Tree=29
num_leaves=31
num_cat=0
split_feature=10 2 19 19 16 2 19 9 18 10 7 19 7 19 18 18 18 10 18 10 10 11 1 9 2 11 19 3 18 18
split_gain=36.1138 20.0304 13.9338 13.1182 11.212 10.588 10.3053 9.97961 9.65656 8.82185 12.5465 10.6853 9.7991 12.8335 8.7863 7.56945 13.7484 12.1798 11.0659 8.53785 7.34118 9.77469 7.63177 7.0701 9.07277 8.41504 8.86994 7.0692 6.72827 8.78411
threshold=150.00000000000003 2.9500000000000006 1.0432800000000002e+17 19915200000000004 1.5000000000000002 0.75000000000000011 1.1737440000000002e+17 8.5000000000000018 41.150000000000013 65.000000000000014 3.5000000000000004 61300800000000008 1.5000000000000002 3067200000000000.5 40.45000000000001 40.050000000000004 40.150000000000013 115.00000000000001 39.95000000000001 115.00000000000001 1.0000000180025095e-35 15.500000000000002 8.5000000000000018 10.500000000000002 1.8500000000000003 6.5000000000000009 19310400000000004 43.250000000000007 39.250000000000007 38.850000000000001
decision_type=10 2 2 2 2 2 2 2 2 10 2 2 2 2 2 2 2 10 2 10 10 2 2 2 2 2 2 2 2 2
left_child=1 2 4 5 -1 -2 7 -4 -3 12 11 15 -6 20 -12 17 19 18 28 -17 21 -14 -22 25 -25 -15 -27 -10 29 -11
right_child=3 8 6 -5 9 -7 -8 -9 27 10 14 -13 13 23 -16 16 -18 -19 -20 -21 22 -23 -24 24 -26 26 -28 -29 -30 -31
leaf_value=-0.014997313593714404 -0.049045435944905021 0.016816827069428397 -0.20933496466678841 -0.0016360127641674258 -0.058000188162557309 -0.017962249710604873 -0.016967220126750646 -0.055188997274439482 0.10435763305127724 0.028092509362342134 -0.025126430280400808 -0.063063525793317907 0.0064952505823458323 -0.013496307992681708 -0.12758577244181599 0.11567418048172871 0.0087943029722511844 0.018158635043015178 -0.088862902159386373 -0.0065602035907129253 0.027771875771373768 0.13676397561753981 0.12763843792349291 -0.00042730609693901852 -0.079485087175011696 -0.0055873092837842404 0.03790358386613623 0.040535973223183697 -0.00053863330739185454 -0.097844777049314269
leaf_weight=252 154 234 6.0000000000000027 333 17 380 52 13.999999999999998 21 8.0000000000000018 35 23 9.0000000000000018 74 10.999999999999998 20 514 94 25 8.0000000000000018 176 15.999999999999998 7.9999999999999991 75 18 66 162 100 80 18
leaf_count=252 154 234 6 333 17 380 52 14 21 8 35 23 9 74 11 20 514 94 25 8 176 16 8 75 18 66 162 100 80 18
internal_value=0 0.00698663 0.00266322 -0.0172127 0.00447873 -0.0269263 -0.0404299 -0.101433 0.0286767 0.00784727 0.00114082 0.00409696 0.0168756 0.018983 -0.0496276 0.00611089 0.0125116 -0.00930763 -0.0290163 0.0807501 0.0390222 0.0898672 0.0321139 0.00838003 -0.0157288 0.0158043 0.0253141 0.0516125 -0.0149015 -0.0590948
internal_weight=0 2136 1781 867 1709 534 72 20 355 1457 836 790 621 604 46 767 542 225 131 28 209 25 184 395 93 302 228 121 106 26
internal_count=3003 2136 1781 867 1709 534 72 20 355 1457 836 790 621 604 46 767 542 225 131 28 209 25 184 395 93 302 228 121 106 26
is_linear=0
shrinkage=0.1


Tree=30
num_leaves=31
num_cat=0
split_feature=10 8 10 10 7 19 10 10 2 8 2 2 8 7 7 19 2 10 10 7 19 8 7 10 8 2 3 2 3 19
split_gain=29.2522 20.6641 17.2801 17.5597 13.5383 13.2559 11.8709 43.086 11.1478 12.337 10.1204 8.62604 8.62432 9.48368 10.8158 13.3245 7.80324 7.63323 7.4665 6.12911 13.5302 7.12533 5.24257 5.14806 15.1537 4.98964 5.03402 4.93209 4.78692 4.72909
threshold=150.00000000000003 1.0000000180025095e-35 80.000000000000014 95.000000000000014 1.5000000000000002 10843200000000002 270.00000000000006 450.00000000000006 5.5500000000000007 1.5000000000000002 2.1500000000000008 0.8500000000000002 1.5000000000000002 1.5000000000000002 2.5000000000000004 23025600000000004 5.1500000000000012 105.00000000000001 55.000000000000007 2.5000000000000004 22248000000000004 1.5000000000000002 2.5000000000000004 350.00000000000006 1.5000000000000002 3.0500000000000003 42.45000000000001 -0.6499999999999998 41.750000000000007 23457600000000004
decision_type=10 2 8 8 2 2 10 10 2 2 2 2 2 2 2 2 2 8 10 2 2 2 2 10 2 2 2 2 2 2
left_child=1 10 4 8 -3 -5 12 23 9 -4 17 29 27 -14 -15 -16 18 -1 25 -20 21 -21 28 24 -8 26 -6 -2 -19 -7
right_child=6 2 3 5 16 11 7 -9 -10 -11 -12 -13 13 14 15 -17 -18 22 19 20 -22 -23 -24 -25 -26 -27 -28 -29 -30 -31
leaf_value=0.052987296143848887 -0.072819768216050046 -0.1011045599345038 -0.0067322037948000235 0.020643668974315771 0.062384925257660741 -0.051250121168602107 0.046542252156321517 -0.03619205451324288 0.095177292931367174 -0.053772830474812683 0.072460473212796181 0.0033826254845547481 -0.10780298508026763 -0.011895681566242034 -0.062810150089752895 0.0077339429298158057 0.068817438918047813 0.0075879055433260957 0.017773736788752569 0.040709720391700073 -0.062468535007309069 -0.0030378244112250199 0.039882266110574299 0.040467495478600041 0.20057281481775582 0.10792844787377831 0.0011519484608106929 -0.0074769089403186849 -0.05577881167082506 -0.014258307473063867
leaf_weight=49 11.999999999999998 9.9999999999999982 100 262 29 41 22 107 6.9999999999999991 126 59 393 15.999999999999998 176 126 34 27 32 465 49 32 155 25 56 9.0000000000000018 10.999999999999998 25 309 19 220
leaf_count=49 12 10 100 262 29 41 22 107 7 126 59 393 16 176 126 34 27 32 465 49 32 155 25 56 9 11 25 309 19 220
internal_value=0 0.00628797 0.00326818 -0.00459741 0.0145229 0.00163748 -0.0154915 0.00630265 -0.0291088 -0.0329584 0.038324 -0.00597662 -0.0217739 -0.0325841 -0.0290023 -0.0478195 0.015981 0.0222116 0.0141186 0.0111123 -0.00201305 0.00747016 0.00236937 0.0585663 0.0912608 0.0465411 0.0340363 -0.00991963 -0.0160193 -0.0200693
internal_weight=0 2136 1952 1149 803 916 867 194 233 226 184 654 673 352 336 160 793 125 766 701 236 204 76 87 31 65 54 321 51 261
internal_count=3003 2136 1952 1149 803 916 867 194 233 226 184 654 673 352 336 160 793 125 766 701 236 204 76 87 31 65 54 321 51 261
is_linear=0
shrinkage=0.1


Tree=31
num_leaves=31
num_cat=0
split_feature=10 8 10 10 9 8 18 2 12 10 10 9 18 2 18 10 8 12 9 12 10 2 10 9 10 1 12 10 18 18
split_gain=23.6943 16.7379 13.9969 14.2234 19.7496 14.8447 30.7025 19.2541 11.1173 28.5197 20.1473 12.4266 10.5213 8.19751 8.16227 13.6364 8.64483 7.85146 9.71306 8.1455 17.788 9.76614 7.83198 7.25738 13.1685 11.8729 10.3126 12.7346 9.54835 12.8795
threshold=150.00000000000003 1.0000000180025095e-35 80.000000000000014 95.000000000000014 8.5000000000000018 1.5000000000000002 41.350000000000001 5.5500000000000007 722.50000000000011 270.00000000000006 350.00000000000006 7.5000000000000009 39.050000000000004 2.1500000000000008 41.550000000000004 180.00000000000003 1.0000000180025095e-35 883.50000000000011 10.500000000000002 724.50000000000011 65.000000000000014 1.8500000000000003 450.00000000000006 10.500000000000002 115.00000000000001 4.5000000000000009 344.50000000000006 95.000000000000014 42.750000000000007 41.95000000000001
decision_type=10 2 8 8 2 2 2 2 2 10 10 2 2 2 2 10 2 2 2 2 10 2 10 2 8 2 2 10 2 2
left_child=1 13 12 4 -4 6 -6 -7 11 -10 -11 14 -3 -1 15 16 -2 19 -19 21 -21 -14 -12 25 -25 -5 -27 -28 29 -26
right_child=8 2 3 23 5 7 -8 -9 9 10 22 -13 17 -15 -16 -17 -18 18 -20 20 -22 -23 -24 24 28 26 27 -29 -30 -31
leaf_value=0.019990438278903844 -0.021923050495732638 -0.048295021372647587 0.019628635928726882 -0.0059797255385706169 -0.051854534229634486 -0.081355840433438076 0.095172825459602123 0.1035930177575537 -0.041692154813789323 0.14565069685583523 0.051126385030307336 -0.022847657427546783 0.0020343793352899731 0.065214425543751939 0.1364122496095149 -0.059783656293651094 0.086651342732461556 0.0049092891908622148 -0.069339079751239693 0.060394615125204637 -0.031822371809970933 0.031037929932844235 -0.017906146150713943 0.12088189051417027 -0.019544915530588722 0.0060105980773203366 0.11349528716076243 0.028451626753564132 -0.10924731196733911 0.091656453031469326
leaf_weight=125 10.999999999999998 27 67 361 49 91 20 5.9999999999999991 60 17 42 665 273 59 5.9999999999999991 17 22 148 20 107 26 202 27 6.9999999999999991 196 200 21 109 10.999999999999998 10.999999999999998
leaf_count=125 11 27 67 361 49 91 20 6 60 17 42 665 273 59 6 17 22 148 20 107 26 202 27 7 196 200 21 109 11 11
internal_value=0 0.00565917 0.00294136 -0.00413767 -0.0261979 -0.0446942 -0.00923791 -0.0699157 -0.0139423 0.0112217 0.0481384 -0.019038 0.0130706 0.0344916 0.0262023 0.0129771 0.0504599 0.0152058 -0.0039298 0.0204932 0.0423672 0.0143685 0.0241137 0.00147373 -0.014125 0.00655292 0.0202629 0.0421894 -0.0184601 -0.0136357
internal_weight=0 2136 1952 1149 233 166 69 97 867 146 86 721 803 184 56 50 33 776 168 608 133 475 69 916 225 691 330 130 218 207
internal_count=3003 2136 1952 1149 233 166 69 97 867 146 86 721 803 184 56 50 33 776 168 608 133 475 69 916 225 691 330 130 218 207
is_linear=0
shrinkage=0.1


Tree=32
num_leaves=31
num_cat=0
split_feature=10 8 19 19 12 10 10 9 10 10 9 8 18 2 12 12 12 18 18 18 18 9 8 18 9 10 18 18 18 18
split_gain=19.1924 13.5577 11.4287 11.7896 9.00499 23.101 16.3193 10.0655 8.94695 12.5567 15.9971 12.0242 24.869 15.5959 9.50918 10.7941 8.23197 7.81207 14.1109 12.0204 7.85607 7.77189 7.61343 13.0895 8.99729 7.05519 6.9061 6.8539 6.80699 9.62936
threshold=150.00000000000003 1.0000000180025095e-35 1.0432800000000002e+17 1.1737440000000002e+17 722.50000000000011 270.00000000000006 350.00000000000006 7.5000000000000009 80.000000000000014 95.000000000000014 8.5000000000000018 1.5000000000000002 41.350000000000001 5.5500000000000007 344.50000000000006 359.50000000000006 883.50000000000011 38.95000000000001 38.850000000000001 39.350000000000001 39.550000000000004 10.500000000000002 1.5000000000000002 42.250000000000007 7.5000000000000009 65.000000000000014 41.750000000000007 41.550000000000004 41.850000000000001 41.95000000000001
decision_type=10 2 2 2 2 8 10 2 10 10 2 2 2 2 2 2 2 2 2 2 2 2 2 2 2 10 2 2 2 2
left_child=1 28 8 -4 7 27 -7 -2 14 10 -10 12 -12 -13 22 -16 -17 18 -11 -19 -21 -18 -3 24 -24 -26 -22 -6 -1 -30
right_child=4 2 3 -5 5 6 -8 -9 9 17 11 13 -14 -15 15 16 21 19 -20 20 26 -23 23 -25 25 -27 -28 -29 29 -31
leaf_value=0.046114249329411758 0.023582046558333958 0.016270667879750286 -0.10449615817156976 -0.011700342415600886 -0.057036322370188512 0.13108562714444 0.021702289739819497 -0.020562891636798048 0.01766577215151964 -0.010004734870993284 -0.046669081208638274 -0.073220256402670617 0.085655542563876391 0.093233718553621114 0.079548253667434676 0.021989029499759373 0.0039842116026421277 0.055603852791472799 -0.16819503181248951 -0.037677229268911053 0.011474613070524468 -0.062405171415174349 0.041231998170744522 0.067681278572135212 -0.032546362849910249 0.0034905094787745193 -0.029270440571687442 0.021017209260057734 -0.079400336567334057 0.022511688483588241
leaf_weight=114 56 164 19 49 45 17 69 665 67 29 49 91 20 5.9999999999999991 27 453 149 47 6.9999999999999991 44 362 20 25 20 179 78 47 14.999999999999998 10.999999999999998 59
leaf_count=114 56 164 19 49 45 17 69 665 67 29 49 91 20 6 27 453 149 47 7 44 362 20 25 20 179 78 47 15 11 59
internal_value=0 0.00509325 0.00264722 -0.0376286 -0.0125481 0.0100996 0.0433246 -0.0171342 0.00410092 -0.00419705 -0.0235781 -0.0402248 -0.00831412 -0.0629241 0.0098239 0.0176493 0.0149623 0.00422795 -0.040764 0.00746736 0.00247307 -0.00387252 -0.00107452 -0.0104938 -0.0160381 -0.0216091 0.00679242 -0.0375229 0.0310424 0.00649694
internal_weight=0 2136 1952 68 867 146 86 721 1884 769 233 166 69 97 1115 649 622 536 36 500 453 169 466 302 282 257 409 60 184 70
internal_count=3003 2136 1952 68 867 146 86 721 1884 769 233 166 69 97 1115 649 622 536 36 500 453 169 466 302 282 257 409 60 184 70
is_linear=0
shrinkage=0.1


Tree=33
num_leaves=31
num_cat=0
split_feature=16 10 7 10 19 10 12 18 10 7 18 18 12 12 3 12 15 2 19 3 13 19 19 13 12 14 18 14 15 7
split_gain=19.3737 10.0846 9.67393 8.13241 6.20957 8.91962 14.4045 10.2514 6.18348 10.5327 6.32929 6.12677 7.91563 8.38955 6.90478 6.0956 6.09122 5.22022 5.19732 5.12594 5.09764 4.64486 4.57203 7.74976 6.05696 4.55775 4.51569 4.42005 6.55456 5.11081
threshold=5.5000000000000009 900.00000000000011 2.5000000000000004 65.000000000000014 1.0432800000000002e+17 55.000000000000007 297.50000000000006 39.250000000000007 65.000000000000014 1.5000000000000002 39.750000000000007 40.050000000000004 883.50000000000011 718.50000000000011 41.650000000000013 689.50000000000011 3.5000000000000004 3.2500000000000004 5054400000000001 38.45000000000001 6.5000000000000009 1.2078720000000002e+17 23544000000000004 8.5000000000000018 221.50000000000003 2.5000000000000004 41.650000000000013 5.5000000000000009 7.5000000000000009 1.5000000000000002
decision_type=2 10 2 8 2 10 2 2 8 2 2 2 2 2 2 2 2 2 2 2 2 2 2 2 2 2 2 2 2 2
left_child=1 2 8 27 5 6 7 -4 9 -1 -11 -12 13 15 -15 18 25 -5 -13 -10 26 -6 24 -24 -19 -8 -9 28 -2 -29
right_child=3 -3 4 17 21 -7 16 20 19 10 11 12 -14 14 -16 -17 -18 22 -20 -21 -22 -23 23 -25 -26 -27 -28 29 -30 -31
leaf_value=-0.12689153424485075 -0.0061252053043108767 -0.068752694475956333 -0.08640486004458936 0.0015389117029328517 -0.10567827174498366 -0.020384598696175614 0.079666603074517839 0.029423730587731314 -0.061800142438429899 -0.061464318742034008 0.10052376498606715 0.044309083248233953 -0.0264602392075107 0.15494158526645549 0.048204130498746563 -0.091821659955581558 0.11729500091826513 0.036953307058963721 -0.0032722378630772354 -0.0028595427090621593 -0.073144810340720415 0.0077355447406897279 0.027200659625662083 0.12815820873551892 -0.0025131839394971389 -0.020973005342806765 -0.063184659039733693 -0.066370861377637161 0.11304502237175416 0.036125747376828742
leaf_weight=4.9999999999999991 60 26 14.999999999999998 801 13.000000000000002 468 9.0000000000000018 43 14.999999999999998 8.9999999999999982 9.9999999999999982 48 30 7.9999999999999991 25 4.9999999999999991 13.999999999999998 58 44 904 6.9999999999999991 4.9999999999999991 49 8.9999999999999982 118 8.9999999999999982 5.9999999999999991 4.9999999999999991 4.9999999999999991 180
leaf_count=5 60 26 15 801 13 468 9 43 15 9 10 48 30 8 25 5 14 58 44 904 7 5 49 9 118 9 6 5 5 180
internal_value=0 -0.00694654 -0.0059968 0.00928728 -0.0163442 -0.0145212 0.0121204 -0.0129856 -0.000471305 0.0162618 0.0202605 0.0245872 0.0198411 0.030526 0.0740799 0.0157088 0.0678241 0.00537745 0.0215528 -0.00382158 0.00668033 -0.0741744 0.0185171 0.0428665 0.0104928 0.0293468 0.0180839 0.025474 0.00304174 0.0333556
internal_weight=0 1718 1692 1285 589 571 103 71 1103 184 179 170 160 130 33 97 32 1035 92 919 56 18 234 58 176 18 49 250 65 185
internal_count=3003 1718 1692 1285 589 571 103 71 1103 184 179 170 160 130 33 97 32 1035 92 919 56 18 234 58 176 18 49 250 65 185
is_linear=0
shrinkage=0.1


Tree=34
num_leaves=31
num_cat=0
split_feature=16 10 8 18 7 18 10 16 12 18 18 18 10 10 12 18 10 18 18 9 11 9 8 2 2 9 18 11 2 1
split_gain=16.3994 11.7844 10.3694 9.07562 8.57961 11.8179 8.41325 8.11281 8.88941 7.81725 12.6392 11.4396 10.3908 7.43598 7.12627 7.06984 7.30255 9.42614 6.17307 13.5337 5.52204 5.27065 8.43972 5.2338 5.14877 5.13206 5.12009 5.11216 6.72458 5.09002
threshold=1.5000000000000002 135.00000000000003 1.0000000180025095e-35 42.150000000000013 2.5000000000000004 40.550000000000004 55.000000000000007 7.5000000000000009 126.50000000000001 39.750000000000007 40.45000000000001 39.250000000000007 270.00000000000006 900.00000000000011 136.50000000000003 41.850000000000001 115.00000000000001 42.250000000000007 40.250000000000007 10.500000000000002 36.500000000000007 7.5000000000000009 1.5000000000000002 1.5500000000000003 7.1500000000000012 7.5000000000000009 41.45000000000001 10.500000000000002 0.75000000000000011 6.5000000000000009
decision_type=2 10 2 2 2 2 8 2 2 2 2 2 10 8 2 2 8 2 2 2 2 2 2 2 2 2 2 2 2 2
left_child=20 2 15 4 9 13 26 8 27 11 18 -3 21 23 -10 -2 -17 -18 -11 -20 25 22 -12 -6 -9 -1 -4 28 -8 -30
right_child=1 3 6 -5 5 -7 7 24 14 10 12 -13 -14 -15 -16 16 17 -19 19 -21 -22 -23 -24 -25 -26 -27 -28 -29 29 -31
leaf_value=0.024818250849546003 0.050074525343198978 0.0031624795403087007 0.07137687803202955 0.052475716196660895 -0.022116976221653525 -0.052055543615660615 -0.078929751356888872 0.014510239784796434 0.088055091802068636 0.015825110995617665 -0.047609254854651853 -0.047381675191067202 0.027518316478532298 -0.093018451086754189 0.0031798359054459411 0.048170050818570426 -0.13860709098947097 -3.7987643374167114e-05 0.1185049478889338 0.011935896916435002 -0.081130194181983764 -0.027206217836960141 0.11401663539205478 0.010721920365688992 0.095555398799584843 -0.020497344756088429 0.01074715305904928 -0.0060711111958739686 -0.0054890187968323796 -0.075188339183032374
